640 15
nieuw 0.835735499858856 0.621191203594208 -0.823040783405304 1.28904795646667 -0.347896426916122 -0.264640688896179 -1.35621118545532 1.79241704940796 1.7314510345459 -0.234236210584641 -1.36954081058502 -1.08758318424225 0.385999232530594 -0.19934418797493 -0.183002546429634
kaart 1.92001926898956 0.0934069827198982 -0.680302202701569 1.53562009334564 -0.507556080818176 0.790441036224365 -0.606272876262665 0.878811538219452 0.97064346075058 -0.424199253320694 -1.46125102043152 -1.63076829910278 -0.213296189904213 -0.300733506679535 -0.639440834522247
bewoners 2.01465368270874 0.120785988867283 -0.0678127035498619 1.50896370410919 -0.797818779945374 -0.167343229055405 -0.630519032478333 1.35222411155701 0.838286519050598 -0.530715763568878 -1.48013639450073 -1.41851699352264 0.311908721923828 -0.114656805992126 -0.675734162330627
nodige 0.818817496299744 0.23984183371067 -1.31249141693115 0.995018839836121 -1.32200145721436 -0.0648604854941368 -1.28032207489014 2.41500973701477 0.834500193595886 -0.190816357731819 -0.887939870357513 -0.803334534168243 -0.164605095982552 -0.0879101678729057 -0.366769671440125
enorm 0.885208964347839 0.335023045539856 -0.94783353805542 1.19191324710846 -0.593470692634583 0.0400928929448128 -1.42346942424774 1.37513065338135 2.08258414268494 -0.431922048330307 -0.980898857116699 -1.15669047832489 0.210475787520409 -0.642691671848297 0.482591450214386
persoonlijke 1.59372329711914 -0.277050971984863 -1.39989900588989 1.66512584686279 0.145055413246155 0.971992611885071 -0.732079267501831 0.579033553600311 1.41765332221985 -0.0406425856053829 -1.36554539203644 -1.28521800041199 -0.425879895687103 -0.279504090547562 -0.162813723087311
horen 2.02148866653442 0.0683956816792488 -0.68659520149231 1.58733808994293 -0.32317978143692 0.777479887008667 -0.0337448343634605 0.213111951947212 0.56829160451889 -0.107790559530258 -1.60370898246765 -0.507583260536194 0.807315409183502 0.269112974405289 -1.80944669246674
gemakkelijk 2.09434509277344 0.0900368914008141 -0.397987812757492 1.61059200763702 -0.624560952186584 0.56331729888916 -0.210644155740738 0.347019046545029 0.92707496881485 -0.299447059631348 -1.61685967445374 -0.748484134674072 0.781729459762573 0.0536966174840927 -1.49780893325806
komt 1.30639886856079 1.0464026927948 0.553913593292236 1.06861114501953 -0.427536904811859 -0.703280746936798 -0.914470911026001 1.60890781879425 1.15828621387482 -0.231696486473083 -1.86212599277496 -0.842866957187653 0.95939439535141 0.101354882121086 -0.378713428974152
moest 1.5657069683075 -0.0275928918272257 -1.08389568328857 1.42268002033234 -0.423218011856079 0.83936870098114 -0.060567632317543 0.184116020798683 0.458465099334717 0.00989926047623158 -1.63770115375519 -0.271669536828995 0.679017305374146 0.593471825122833 -2.15599179267883
atomium 1.83754372596741 0.504154145717621 0.393859207630157 1.30981373786926 -0.810564815998077 -0.516185581684113 -0.83525025844574 1.24336171150208 0.868307411670685 -0.730158507823944 -1.48586857318878 -1.12920999526978 0.978760540485382 -0.00370633159764111 -0.776838064193726
inderdaad 0.810996532440186 0.829069018363953 -0.698358535766602 1.27555167675018 -0.485292136669159 -0.0378162935376167 -1.25830161571503 1.75218868255615 1.63637137413025 -0.367465287446976 -1.54257667064667 -1.17761957645416 0.254791766405106 0.0231441482901573 -0.0723725780844688
liet 1.68421542644501 -0.0159486103802919 -1.23677861690521 1.40795564651489 -0.37182879447937 0.273691236972809 -1.00952196121216 1.85705327987671 1.01325500011444 0.140025794506073 -1.44838833808899 -0.75238174200058 -0.231449142098427 -0.337147623300552 -0.304663687944412
aangezien 1.51828396320343 0.570334732532501 -0.687511384487152 1.40525329113007 -0.113865226507187 0.0585688278079033 -0.637039422988892 0.849392950534821 1.12637984752655 0.00225934502668679 -1.80307126045227 -0.234789595007896 1.3853805065155 0.349418699741364 -1.47042107582092
bernard 1.24785816669464 0.0443938709795475 -1.34451353549957 1.47342133522034 0.256592154502869 0.392282277345657 -1.10140717029572 1.3143128156662 1.74750530719757 0.230470404028893 -1.53810846805573 -0.811441600322723 -0.206615403294563 -0.318314552307129 0.163804709911346
6 1.45763146877289 0.714529633522034 -0.31913098692894 1.41423678398132 -0.860877573490143 0.332925051450729 -0.740532338619232 1.2198588848114 1.41604173183441 -0.539105951786041 -1.75511825084686 -0.967263460159302 0.70369416475296 -0.190338760614395 -0.728829145431519
ontbijten 0.959219872951508 0.497113168239594 -0.904640972614288 1.1103138923645 -1.74648773670197 0.808859944343567 -0.429544866085052 0.974805414676666 -0.0292147174477577 -0.659430980682373 -0.924006998538971 -0.350838631391525 0.907456278800964 0.743239402770996 -2.03811502456665
verwelkomd 1.89174664020538 -0.599658012390137 -1.26580488681793 1.53927111625671 0.0809131264686584 1.63150107860565 -0.160924479365349 -0.474645167589188 1.14249622821808 0.152595832943916 -1.31076145172119 -0.674926280975342 -0.250371187925339 -0.549060106277466 -0.55154412984848
korte 1.66459619998932 0.27956560254097 -0.78769063949585 1.42149972915649 -0.977417767047882 0.943763494491577 -0.560970306396484 0.851048409938812 1.42162835597992 -0.399209886789322 -1.33479988574982 -1.37090241909027 0.0348961018025875 -0.584876418113708 -0.663384974002838
zoveel 1.65853226184845 0.485275387763977 -0.724740386009216 1.53688442707062 -0.438103377819061 0.339454412460327 -0.482126384973526 0.853000462055206 0.939493954181671 -0.161264881491661 -1.83284854888916 -0.654964864253998 0.8215371966362 0.383792519569397 -1.52974128723145
minuutjes 1.71189486980438 0.634722292423248 0.749423205852509 1.10114920139313 -1.56113600730896 -0.474912375211716 -0.509372174739838 0.897635936737061 0.510301470756531 -1.10223066806793 -1.02128660678864 -1.12908673286438 1.08873808383942 0.0765421986579895 -1.08631837368011
slechts 1.74044191837311 0.151760563254356 -1.02026176452637 1.55944168567657 -0.632997155189514 0.845949232578278 -0.25923752784729 0.119725905358791 0.969927191734314 -0.122409611940384 -1.52759540081024 -0.391367018222809 0.840140283107758 0.188659027218819 -1.75877690315247
keurig 1.28742051124573 0.311005413532257 -0.992201089859009 1.50667536258698 -0.215903356671333 0.312018364667892 -1.04166042804718 1.29340827465057 1.71428096294403 -0.244628950953484 -1.5808173418045 -1.21385252475739 0.0891231745481491 -0.166433274745941 -0.287563681602478
maakte 1.97836720943451 -0.147881582379341 -1.39315748214722 1.6238831281662 -0.623522639274597 1.07620763778687 -0.53912764787674 0.603135585784912 0.811044335365295 -0.0142832845449448 -1.51440691947937 -0.444006830453873 0.129730761051178 -0.0867458954453468 -1.05449199676514
jammer 1.51404869556427 0.280746251344681 -0.908970534801483 1.25513672828674 -0.215618893504143 -0.00694355182349682 -0.405543684959412 1.12160849571228 0.814372599124908 0.306166082620621 -1.85804283618927 0.0761081352829933 1.0010222196579 0.401063591241837 -1.83855283260345
vertoeven 1.2163337469101 0.5071080327034 -0.58900511264801 1.3194545507431 -1.06586515903473 -0.156989887356758 -0.921980977058411 1.93101334571838 0.740201950073242 -0.395441740751266 -1.13182437419891 -1.24609410762787 0.69558972120285 0.287683397531509 -1.15379965305328
geschikt 0.904692530632019 0.782930791378021 -0.489851236343384 1.27416920661926 -1.09580457210541 -0.299068778753281 -1.03439974784851 1.81287443637848 0.857939779758453 -0.64641284942627 -1.25641977787018 -1.18308973312378 0.704193353652954 0.409878611564636 -1.12350964546204
bijvoorbeeld 2.16180634498596 -0.201677232980728 -0.930801153182983 1.51776194572449 -0.670614957809448 0.69360363483429 -0.154404535889626 0.917665541172028 0.586858451366425 0.0873774364590645 -1.50487291812897 -0.98054164648056 -0.151636376976967 -0.153710409998894 -1.30169284343719
frans 1.75043308734894 0.117148421704769 -0.989320337772369 1.6989758014679 -0.249587312340736 0.615081250667572 -0.51493239402771 0.541618704795837 1.23463582992554 -0.117605783045292 -1.72200047969818 -0.816170275211334 0.573554158210754 0.114966571331024 -1.24342477321625
bakker 1.71818470954895 0.550258815288544 -0.00104094459675252 1.41254937648773 -1.04150629043579 0.203107133507729 -0.290858894586563 0.555211186408997 0.429816752672195 -0.643279314041138 -1.48708295822144 -0.776170253753662 1.12319576740265 0.528692424297333 -1.81036567687988
gedeeld 1.63163864612579 0.165173768997192 -0.758283972740173 1.58537769317627 -0.347825199365616 0.440287053585052 -0.242240235209465 0.689898729324341 0.332083642482758 -0.128192201256752 -1.66986191272736 -0.553371965885162 0.658393323421478 0.806960761547089 -2.01656603813171
pis 1.41950082778931 0.766182243824005 1.00357794761658 1.05552566051483 -1.13150095939636 -0.72227019071579 -0.894965469837189 1.01313531398773 0.93701159954071 -1.2107937335968 -1.03500545024872 -1.36966609954834 1.07292437553406 -0.0523499697446823 -0.449625253677368
supermarkt 1.83468878269196 0.400002777576447 0.475550085306168 1.14577233791351 -0.952797770500183 -0.748432636260986 -0.486289173364639 1.31208038330078 -0.0699109211564064 -0.507582604885101 -1.15671956539154 -0.912636578083038 1.18606352806091 0.347190648317337 -1.5963226556778
appartementen 1.15973246097565 0.509945034980774 -0.568532526493073 1.40416634082794 -0.844678163528442 -0.0429675951600075 -1.12753736972809 1.50809371471405 1.57680678367615 -0.642249882221222 -1.26519453525543 -1.49046528339386 0.189563572406769 -0.261330425739288 -0.117518596351147
basic 1.0711749792099 0.362381845712662 -1.04960751533508 1.49933803081512 -0.344625443220139 0.09088284522295 -0.739170670509338 1.32394158840179 1.53912723064423 -0.0160602778196335 -1.64261877536774 -1.03223013877869 0.546568632125854 0.182028293609619 -1.21680450439453
zondag 1.36332833766937 0.50766521692276 -0.281949877738953 1.5506317615509 -0.469595611095428 -0.203754276037216 -0.874588847160339 1.36556780338287 1.34799778461456 -0.508180260658264 -1.5014431476593 -1.60723745822906 0.428330361843109 0.0652990937232971 -0.638215959072113
wandelafstand 1.17648005485535 0.888314545154572 0.412304490804672 1.32826173305511 -1.3480486869812 -0.341321438550949 -0.709498882293701 0.552126407623291 0.994693517684937 -1.25358426570892 -0.985543131828308 -1.49159872531891 1.12790882587433 0.367480576038361 -0.993116319179535
praktische 1.41400563716888 0.34747788310051 -0.98945826292038 1.47511255741119 -0.95688009262085 0.226716727018356 -0.940499186515808 1.51825320720673 0.895914018154144 -0.359695702791214 -1.42948055267334 -1.03211510181427 0.402437180280685 0.269229471683502 -1.13712441921234
sleutels 2.06621479988098 0.0648550614714622 -1.00709044933319 1.71174991130829 -0.433941245079041 0.798665702342987 -0.35763943195343 0.586094975471497 0.730408430099487 -0.0343240275979042 -1.66852450370789 -0.754894614219666 0.281374245882034 0.118869490921497 -1.22589910030365
drukke 1.40831112861633 0.815323054790497 0.501808524131775 1.31674778461456 -1.28181529045105 -0.378490597009659 -0.535808205604553 0.728985130786896 0.853505253791809 -0.978869736194611 -1.23601245880127 -1.81364953517914 0.623735427856445 0.223673477768898 -0.904804706573486
vele 1.48550248146057 0.551615476608276 -0.581175327301025 1.30320024490356 -1.54265856742859 0.259408980607986 -0.766835153102875 1.48165822029114 0.661123096942902 -0.657737970352173 -1.29493176937103 -1.18204367160797 0.332970201969147 0.140460774302483 -1.07149064540863
kwamen 1.86740016937256 0.347513407468796 -0.990693211555481 1.59151101112366 -0.729715585708618 0.714880645275116 -0.769876778125763 0.702454626560211 1.19708633422852 -0.235530808568001 -1.62240552902222 -0.795483887195587 0.41601550579071 -0.172194838523865 -0.889817893505096
balkon 0.809946775436401 0.763160049915314 -0.442105770111084 1.19260787963867 -1.59868848323822 0.338574349880219 -0.578262150287628 1.34792447090149 1.15176784992218 -0.783104598522186 -1.13554465770721 -1.05217504501343 0.999543368816376 0.184939429163933 -1.39729464054108
lopend 1.82710087299347 0.414075672626495 0.688077569007874 1.03148221969604 -1.61934328079224 -0.854445815086365 -0.657041966915131 1.13503384590149 0.389210671186447 -0.893277049064636 -0.888787269592285 -0.959485948085785 1.16879200935364 0.0153833497315645 -0.92421954870224
the 1.63293945789337 0.401975125074387 -0.842977106571198 1.57444751262665 -0.645904362201691 0.613264858722687 -0.493496119976044 0.63981419801712 1.04412281513214 -0.285628348588943 -1.69113278388977 -0.630021631717682 0.870680809020996 0.291921615600586 -1.50476062297821
zowel 2.01880860328674 0.465396076440811 -0.404549807310104 1.46400141716003 -1.44573509693146 1.02454137802124 -0.445100754499435 0.0668400824069977 0.724959373474121 -0.867712378501892 -1.16130948066711 -0.815681755542755 0.844529867172241 -0.144810035824776 -1.01576101779938
valerie 0.902505695819855 0.988605320453644 -0.423158586025238 1.40095210075378 -0.840071380138397 -0.278675556182861 -1.19243609905243 1.45194041728973 1.23284065723419 -0.817632079124451 -1.36596381664276 -1.26116561889648 0.653126060962677 0.506079375743866 -0.652300119400024
mocht 1.59611678123474 0.0873035863041878 -0.952642261981964 1.37901771068573 -0.699156880378723 0.878354251384735 -0.120051167905331 0.0429901853203773 0.314143002033234 -0.268408238887787 -1.44956684112549 -0.211490035057068 0.943294942378998 0.642588675022125 -2.17705297470093
elias 1.70816743373871 0.195805788040161 -0.854727685451508 1.66695594787598 -0.821335732936859 0.177653208374977 -0.725115418434143 0.947343826293945 0.964690685272217 -0.296503484249115 -1.52508175373077 -0.787961363792419 0.697499096393585 0.227915287017822 -1.37890136241913
afspraak 2.0277054309845 0.00348953739739954 -1.08255016803741 1.62790250778198 -0.747699201107025 0.966960787773132 -0.377582430839539 0.568727731704712 0.88165944814682 -0.208096519112587 -1.49262428283691 -0.904075026512146 0.196789547801018 -0.0663889497518539 -1.09420680999756
enige 1.86044573783875 -0.0331270433962345 -1.12015926837921 1.31787133216858 -0.721421897411346 0.314062476158142 -0.692292034626007 1.60831928253174 1.01323413848877 0.241454437375069 -1.66657567024231 -0.238609373569489 0.292183756828308 -0.307396113872528 -0.872835695743561
gelukkig 2.23902678489685 0.097399041056633 -0.261722296476364 1.35785222053528 -0.501333475112915 0.345423370599747 0.0820504948496819 0.240401372313499 0.634474575519562 -0.0154952947050333 -1.85030567646027 -0.487995684146881 0.738622725009918 0.0871445015072823 -1.73554229736328
tarik 1.40227234363556 0.266486883163452 -1.36688721179962 1.62448143959045 -0.716252028942108 0.992942273616791 -0.550523638725281 0.672571659088135 1.50035905838013 -0.14468252658844 -1.410968542099 -0.835096180438995 0.270022064447403 -0.0963783636689186 -1.07632958889008
slecht 1.41995167732239 0.25514829158783 -1.01707768440247 1.35937941074371 -0.146143913269043 0.375248938798904 -0.433463156223297 0.986943602561951 0.73369950056076 0.176403075456619 -1.69780874252319 0.170595064759254 1.07276797294617 0.490396589040756 -1.95952844619751
kort 1.58813512325287 0.143010213971138 -1.18337392807007 1.67869210243225 -0.268794059753418 0.717543482780457 -0.442680597305298 0.816446244716644 1.33343708515167 0.0850009471178055 -1.62617862224579 -0.837132513523102 0.302083402872086 0.011664442718029 -1.25196075439453
fantastische 1.28821909427643 -0.019052691757679 -1.47941112518311 1.58859670162201 -0.819067656993866 1.33985781669617 -0.591464340686798 0.310163229703903 1.48501813411713 -0.33315110206604 -1.13878166675568 -1.04958593845367 0.252763509750366 -0.156866386532784 -0.955244421958923
wandelen 1.9233615398407 0.266330003738403 -0.0449787825345993 1.45357990264893 -1.14297199249268 0.439762681722641 -0.0736837312579155 0.379659086465836 0.496406674385071 -0.715145111083984 -1.30554711818695 -0.903849005699158 0.956465542316437 0.131304413080215 -1.80393123626709
stijl -0.228587865829468 0.849656879901886 -0.537103354930878 0.730785667896271 -0.435754239559174 -0.699852585792542 -1.53030848503113 1.90577912330627 1.65506815910339 -0.531369090080261 -0.785485923290253 -1.50712502002716 -0.231132626533508 0.00803693011403084 0.886727869510651
beter 1.72912418842316 0.0509341061115265 -0.976024866104126 1.40328216552734 0.307180017232895 0.729626595973969 -0.120903968811035 0.283330708742142 0.614631652832031 0.41253137588501 -1.75773978233337 0.253076732158661 0.911570072174072 0.289302408695221 -1.93592214584351
handig 2.01651978492737 -0.0360221602022648 -0.56206476688385 1.56006920337677 -0.425615310668945 0.507025361061096 -0.0915937721729279 0.419238597154617 0.336389303207397 -0.0661262199282646 -1.58381021022797 -0.522110879421234 0.843016028404236 0.417651742696762 -1.94333493709564
zoeken 2.15264582633972 0.102211333811283 -0.278142333030701 1.46869969367981 -0.146603375673294 0.368696182966232 0.133276522159576 -0.0443468689918518 0.943656921386719 0.0990466997027397 -1.7680196762085 -0.329619437456131 1.01134192943573 0.0910830721259117 -1.66676914691925
huren 1.33218955993652 0.145908281207085 -1.09345459938049 1.5353000164032 -0.0922406613826752 1.41032660007477 -0.21357835829258 -0.809071481227875 0.846792101860046 -0.378167659044266 -1.35517930984497 -0.838083565235138 0.805018186569214 0.525153398513794 -1.62192749977112
mee 1.90801024436951 0.0381913222372532 -0.850308775901794 1.57879817485809 -0.49775367975235 0.583087027072906 -0.230582043528557 0.423906266689301 0.450495392084122 -0.122008606791496 -1.59573042392731 -0.737318575382233 0.641942620277405 0.452390491962433 -1.84315574169159
sofie 1.50710713863373 0.033665481954813 -1.46888363361359 1.62899279594421 -0.780067563056946 1.23493206501007 -0.651977062225342 0.360434144735336 1.39922726154327 -0.253914028406143 -1.31895780563354 -0.748510003089905 0.313923567533493 -0.186923965811729 -0.878632128238678
werkelijk 1.44749164581299 0.577029049396515 -0.426828384399414 1.4578902721405 -0.500098168849945 -0.138824611902237 -0.890017926692963 1.63124775886536 1.14555311203003 -0.278670817613602 -1.63356232643127 -1.14101028442383 0.65054190158844 0.153659418225288 -0.8570356965065
afspraken 2.00114297866821 -0.363018959760666 -1.21510195732117 1.59187841415405 -0.205078050494194 0.692621111869812 -0.739593863487244 1.22927856445312 0.941180467605591 0.113815680146217 -1.51213991641998 -0.846759676933289 -0.265209525823593 -0.190904200077057 -0.51386970281601
problemen 1.84226822853088 -0.285962760448456 -1.34896647930145 1.54041886329651 -0.0279849898070097 1.44319331645966 -0.210341066122055 0.0373809076845646 1.26582360267639 0.188806995749474 -1.54087054729462 -0.451455056667328 0.0466074198484421 -0.383833259344101 -0.914817154407501
uitgebreid 0.937095999717712 0.291881233453751 -1.37592840194702 1.53597295284271 -0.619370639324188 0.677136480808258 -1.12402403354645 1.48705923557281 1.44016230106354 -0.406440705060959 -1.17487299442291 -1.33058202266693 -0.233267456293106 -0.0944279059767723 -0.118267714977264
geregeld 1.7765429019928 -0.243094578385353 -1.0823929309845 1.665691614151 0.464269191026688 0.530685365200043 -0.595259130001068 0.880992650985718 1.46396887302399 0.263527393341064 -1.65587210655212 -1.02983772754669 -0.168080449104309 -0.291647523641586 -0.28740730881691
boeken 1.75276839733124 0.0441216081380844 -1.0218825340271 1.53811287879944 -0.936301350593567 1.06318759918213 -0.329506307840347 0.277597516775131 0.436561703681946 -0.379873722791672 -1.25092601776123 -0.54257071018219 0.727392911911011 0.27017280459404 -1.87802445888519
slaapbank 1.22209763526917 0.640473365783691 0.0935647636651993 1.08623909950256 -0.682901978492737 -0.761209070682526 -0.937127828598022 2.28200387954712 0.847745895385742 -0.301815450191498 -1.52567040920258 -1.04122424125671 0.346504658460617 0.0681702122092247 -0.655560255050659
oud 1.83041667938232 0.3703653216362 -0.451689183712006 1.58243811130524 -0.104787953197956 0.321226716041565 -0.404045730829239 0.660306572914124 1.31874310970306 -0.025734281167388 -1.93350422382355 -1.07575023174286 0.485733598470688 0.0651213377714157 -1.10238230228424
ingerichte 0.179525122046471 0.616864025592804 -0.700838923454285 1.05727303028107 -0.557707846164703 -0.192746624350548 -1.28512072563171 2.26440644264221 1.29248666763306 -0.45099064707756 -1.00712752342224 -1.6991091966629 -0.269590824842453 -0.00463154818862677 0.0556234829127789
benodigdheden 1.03012442588806 0.621762275695801 -0.610988974571228 0.861418902873993 -1.85450303554535 -0.194167658686638 -1.23243045806885 2.33049559593201 0.464765042066574 -0.545916855335236 -0.931660890579224 -0.594607651233673 0.317164093255997 0.0303358752280474 -0.415732651948929
altijd 1.61242163181305 -0.0978404879570007 -1.0450621843338 1.5536162853241 0.276542395353317 0.382234454154968 -0.784710645675659 1.1172981262207 1.67932796478271 0.332515031099319 -1.6621001958847 -0.846865773200989 -0.0784984230995178 -0.552211701869965 -0.276355534791946
bovendien 0.838386714458466 0.656344950199127 -0.603029370307922 1.30472314357758 -1.08939921855927 -0.0507833994925022 -1.1393940448761 1.43943357467651 1.61399900913239 -0.76194566488266 -1.12415289878845 -1.5817186832428 0.366111427545547 -0.113283053040504 -0.377938210964203
eigenaar 2.23942422866821 -0.641572535037994 -1.06154251098633 1.40132200717926 0.247869402170181 0.642041981220245 -0.4986192882061 1.19683253765106 0.735270440578461 0.442036956548691 -1.59276986122131 -0.636706531047821 -0.604654014110565 -0.490646809339523 -0.208400562405586
nette 0.729290068149567 0.465619176626205 -0.551200330257416 1.31101882457733 -0.176332727074623 -0.0517818219959736 -1.11998546123505 1.86898374557495 1.50460577011108 -0.428143680095673 -1.25544154644012 -1.82303667068481 -0.305806159973145 -0.0777986943721771 0.0344676822423935
wijn 1.38869869709015 0.18738865852356 -1.37677597999573 1.67476463317871 -0.556440055370331 0.9394451379776 -0.590478003025055 0.649455785751343 1.25396144390106 -0.226003095507622 -1.51385176181793 -1.01735961437225 0.114634372293949 0.136005505919456 -1.17962312698364
voet 1.74483788013458 0.31504425406456 0.518168985843658 1.17057192325592 -1.16391134262085 -0.1486846357584 0.0795852094888687 -0.148361161351204 -0.219499215483665 -0.765511393547058 -0.92976313829422 -0.45625713467598 1.61928677558899 0.675788283348083 -2.00669145584106
weten 1.78173637390137 -0.110406331717968 -0.818024337291718 1.41591143608093 -0.590200543403625 0.588064789772034 0.0666933506727219 0.321295946836472 0.183422178030014 0.00603083986788988 -1.53616917133331 -0.280227333307266 0.799880385398865 0.520322680473328 -2.22595000267029
christian 1.79370248317719 0.0560594797134399 -0.958355188369751 1.68333423137665 -0.643214166164398 0.937623143196106 -0.61227560043335 0.54198145866394 1.37119090557098 -0.40032896399498 -1.40391910076141 -1.17451071739197 0.184896379709244 -0.354155480861664 -0.717940092086792
overal 1.86657869815826 0.198815509676933 -0.323865503072739 1.36266028881073 -1.25459468364716 0.156965598464012 -0.405036985874176 0.852230906486511 -0.150084927678108 -0.570677280426025 -1.27415859699249 -0.375227093696594 1.03153884410858 0.633062303066254 -1.8569632768631
huisje 0.830983877182007 0.669142723083496 -0.742906153202057 1.41586899757385 -1.09525036811829 0.16199104487896 -1.20319247245789 1.38615894317627 1.56757497787476 -0.842336177825928 -0.980827152729034 -1.5877091884613 0.199113696813583 -0.140076339244843 -0.035563737154007
voelde 1.35523819923401 -0.243629679083824 -1.51624608039856 1.36390733718872 1.16406893730164 1.22227263450623 -0.238923415541649 -0.227434322237968 1.26823198795319 0.706349611282349 -1.76935684680939 0.2688949406147 0.247643515467644 0.0194418970495462 -0.784176588058472
gemak 2.10835552215576 -0.339088261127472 -0.955408275127411 1.62830018997192 0.214575409889221 0.00550343934446573 -0.545931339263916 0.948492765426636 0.83350545167923 0.269284129142761 -1.70078778266907 -0.485506176948547 0.475809961557388 0.0933777540922165 -1.22522807121277
hein 1.13649475574493 0.166477978229523 -1.5740305185318 1.59573781490326 -0.728023529052734 1.32680642604828 -0.790270805358887 0.336132079362869 1.70015227794647 -0.347449660301208 -1.14153826236725 -0.985803186893463 0.137618735432625 -0.304918497800827 -0.480312258005142
gastvrijheid 1.45999145507812 0.191627994179726 -1.28022968769073 1.599684715271 -0.71109277009964 1.17749345302582 -0.302965402603149 -0.0811480581760406 0.47923743724823 -0.353245913982391 -1.28882455825806 -0.433397173881531 0.640442848205566 0.591209888458252 -1.91837394237518
familie 1.62521409988403 -0.00442288629710674 -1.39896667003632 1.75577306747437 -0.372850358486176 0.963764667510986 -0.697914838790894 0.444931596517563 1.34514474868774 -0.243454560637474 -1.48176634311676 -0.637472927570343 0.389047354459763 -0.00146542023867369 -0.971522688865662
garage 1.29856848716736 0.890991032123566 -0.0135433794930577 1.59633779525757 -0.947181820869446 -0.128100991249084 -0.824884712696075 0.896807551383972 1.1252543926239 -0.845994710922241 -1.4604572057724 -1.56938850879669 0.642724454402924 0.343163937330246 -0.68149596452713
stonden 2.02819275856018 -0.335519164800644 -1.02261912822723 1.47407484054565 -0.370137274265289 0.82544070482254 -0.251916319131851 0.790773391723633 0.702227175235748 0.112709112465382 -1.58572947978973 -0.344498872756958 0.390214174985886 -0.0979620292782784 -1.65745902061462
nachtje 1.15074825286865 0.176494911313057 -1.37160754203796 1.37046694755554 -0.669369578361511 1.25956618785858 0.0582040846347809 -0.24428716301918 0.960854947566986 -0.0561180040240288 -1.22601652145386 -0.0215917937457561 0.938655138015747 0.255016893148422 -2.10034108161926
plaats 2.02849388122559 0.326704025268555 -0.201779261231422 1.44765281677246 -0.894347012042999 0.158805102109909 -0.372681647539139 1.1621367931366 0.518220365047455 -0.372079372406006 -1.47072374820709 -1.43777239322662 0.419322937726974 0.0118480632081628 -1.23058807849884
liggen 1.6868804693222 0.081862285733223 -0.300965785980225 1.38225245475769 -0.0604309253394604 -0.16479466855526 -0.10705553740263 1.23139119148254 0.653737008571625 0.15791717171669 -1.88522493839264 -0.941909909248352 0.464718699455261 0.316532373428345 -1.83798921108246
stijlvol 0.268238186836243 0.578218817710876 -0.440302789211273 0.756986737251282 -0.152635291218758 -0.701352179050446 -1.5337096452713 2.0389416217804 1.72128939628601 -0.332055330276489 -0.970818340778351 -1.22369301319122 -0.175692707300186 -0.263334155082703 1.09034490585327
geweest 1.84658479690552 0.0288844611495733 -1.02824795246124 1.53667092323303 -0.202700063586235 1.20851492881775 -0.0417074151337147 -0.321435034275055 1.15846335887909 -0.00571530498564243 -1.63980114459991 -0.0475605726242065 0.712122142314911 -0.00995745789259672 -1.42249310016632
gaat 1.53935897350311 0.657160103321075 0.352231949567795 1.29778361320496 -1.33730185031891 -0.0715229883790016 -0.423606187105179 0.522911727428436 0.377437889575958 -1.00130498409271 -1.2094863653183 -0.715429604053497 1.43045544624329 0.475515097379684 -1.65883910655975
dakterras 0.419749677181244 0.510910511016846 -1.17559051513672 1.11134481430054 -1.47503113746643 0.488215923309326 -0.866733014583588 1.75260531902313 1.35617113113403 -0.288578361272812 -1.19811820983887 -0.915487051010132 0.477050811052322 -0.00664241658523679 -1.13360249996185
plekje 0.739957571029663 0.582413136959076 -1.01656687259674 1.44157183170319 -1.03514695167542 0.448905974626541 -1.13189995288849 1.02471268177032 1.77414655685425 -0.822535991668701 -0.948162257671356 -1.4837338924408 0.569838166236877 -0.0609960854053497 -0.379956036806107
vooraf 1.70271682739258 -0.226708397269249 -0.921089231967926 1.72768640518188 -0.143198117613792 0.674494564533234 -0.377730071544647 0.68748539686203 1.52081406116486 0.00424490449950099 -1.67390394210815 -1.11587071418762 -0.0147982416674495 -0.155722677707672 -0.860699594020844
20 1.32160902023315 0.802309632301331 0.980454742908478 1.04215312004089 -1.5405410528183 -0.236294120550156 -0.362262934446335 0.126328080892563 0.651849031448364 -1.32785785198212 -0.963792681694031 -1.01831185817719 1.46961641311646 0.252625942230225 -1.26823341846466
terras 0.977041780948639 0.817466497421265 -0.371777802705765 1.5248749256134 -0.990512847900391 0.183338567614555 -0.936595022678375 0.905524373054504 1.32648146152496 -1.06056785583496 -1.25765693187714 -1.68315351009369 0.556636810302734 0.28150001168251 -0.716667115688324
correct 1.56286525726318 0.0213673263788223 -1.25495004653931 1.62307453155518 0.0125123234465718 0.529846251010895 -0.910396099090576 1.21122980117798 1.27327477931976 0.150294676423073 -1.73849081993103 -0.825995147228241 0.051018450409174 -0.0425368584692478 -0.646596729755402
blij 1.56518888473511 -0.0736980736255646 -1.30912625789642 1.61565041542053 0.092590257525444 0.753350257873535 -0.431374549865723 0.632975101470947 1.31412768363953 0.195841029286385 -1.83756995201111 -0.694418549537659 0.145593881607056 0.0459444895386696 -1.18755614757538
werkte 1.39312052726746 0.266323238611221 -0.59546971321106 1.31026077270508 -0.666225075721741 -0.164280027151108 -0.650450050830841 1.90698051452637 0.575832843780518 -0.123941205441952 -1.54263699054718 -0.88656222820282 0.594423472881317 0.414951413869858 -1.53239226341248
ramen 1.60340356826782 0.487890094518661 -0.176563456654549 1.37324655056 -0.362582921981812 -0.086189404129982 -0.588866353034973 1.44727969169617 1.1281920671463 -0.236662313342094 -1.81760704517365 -1.04621338844299 0.68304705619812 0.114033505320549 -1.21949172019958
doet 1.86912298202515 0.123083911836147 -0.885261833667755 1.61613643169403 -0.774218440055847 0.301248848438263 -0.768850922584534 1.04451525211334 0.918591618537903 -0.337887167930603 -1.39383983612061 -1.19328677654266 0.380356639623642 0.0565903969109058 -1.11837387084961
t 1.63492000102997 0.622340679168701 0.00756266852840781 1.57576465606689 -1.10471820831299 0.0416530445218086 -0.83053332567215 0.442417651414871 1.23369443416595 -1.06085181236267 -1.17363262176514 -1.3251006603241 0.967588305473328 0.149189949035645 -0.780887246131897
minder 1.19173812866211 0.791300654411316 0.052598848938942 1.16181945800781 -0.788676917552948 -0.662937343120575 -0.922833681106567 1.76743233203888 1.00628280639648 -0.45101997256279 -1.58885180950165 -0.946121990680695 0.91512930393219 0.197796881198883 -1.02560544013977
ziet 0.614568471908569 0.823890626430511 -0.331848204135895 0.837064146995544 -0.291891783475876 -1.17719256877899 -1.48746311664581 2.29149222373962 1.32192087173462 -0.251746118068695 -1.19381177425385 -0.489370077848434 0.841472387313843 -0.0426473505795002 -0.113266006112099
schone 0.593876779079437 0.57675564289093 -0.718907654285431 1.2763968706131 -0.586374998092651 -0.0169209707528353 -1.14791023731232 1.90933692455292 1.49039602279663 -0.395969718694687 -1.29909896850586 -1.65092539787292 -0.118720084428787 0.00515055796131492 -0.236333116889
maakt 2.22552800178528 0.159660741686821 0.156920686364174 1.40103554725647 -1.09083116054535 -0.179606258869171 -0.178266972303391 0.75043398141861 0.131580784916878 -0.48776787519455 -1.32836782932281 -0.960053563117981 0.88563084602356 0.250697761774063 -1.55827498435974
uitstekende 1.05233418941498 0.434380918741226 -0.708073914051056 1.3929044008255 -0.850005030632019 0.14159782230854 -1.18798911571503 1.14335298538208 1.8039778470993 -0.788660228252411 -1.08980846405029 -1.63609659671783 0.0211270991712809 -0.20172943174839 0.138799101114273
lekkere 1.85112500190735 -0.0243248473852873 -1.00277805328369 1.60800886154175 -0.671761512756348 0.502798497676849 -0.371684283018112 1.05499804019928 0.767342627048492 0.0162278190255165 -1.62557923793793 -0.706320822238922 0.303582638502121 0.0944759249687195 -1.48144638538361
mede 1.28598880767822 0.0131693510338664 -1.6031551361084 1.50175428390503 -0.618716299533844 1.65769410133362 -0.571034550666809 -0.149204507470131 1.69749414920807 -0.297595918178558 -1.07082736492157 -0.710727274417877 0.118019759654999 -0.456564247608185 -0.444243043661118
advertentie 1.54152297973633 0.468113392591476 -0.568632304668427 1.54325425624847 0.136294454336166 0.0870563238859177 -0.647924959659576 1.07431983947754 1.56912350654602 -0.0267877820879221 -1.90950393676758 -1.19257164001465 0.428531169891357 -0.0162309557199478 -0.619899928569794
hidden 1.63659775257111 0.603689014911652 -0.136332333087921 1.52898502349854 -0.595315515995026 0.343586564064026 -0.668750047683716 0.760992765426636 1.2059029340744 -0.641518175601959 -1.66663837432861 -1.33955204486847 0.674128711223602 0.0880494639277458 -1.09631335735321
open 2.25128555297852 0.0788149908185005 -0.170623376965523 1.55588912963867 -0.141660884022713 0.180159166455269 -0.40799355506897 0.95491099357605 0.854560554027557 -0.146021232008934 -1.82890439033508 -0.976212382316589 0.517600238323212 -0.0225525684654713 -1.01334226131439
kwam 1.82087397575378 -0.0288561098277569 -1.2829954624176 1.4371817111969 -0.429367452859879 1.01613712310791 -0.208906292915344 0.561956405639648 0.772630631923676 0.205793723464012 -1.731076836586 -0.207796677947044 0.390363931655884 0.152242034673691 -1.59405481815338
biedt 0.881610333919525 0.637184023857117 -0.820513486862183 1.27838361263275 -0.921844482421875 -0.253134310245514 -1.2651731967926 2.00165557861328 1.20868241786957 -0.378135025501251 -1.10395705699921 -1.38450956344604 0.228152379393578 0.0159772392362356 -0.443052768707275
adres 1.13201355934143 0.496848881244659 -1.11084759235382 1.59767973423004 -1.39183783531189 1.33994567394257 -0.52681428194046 -0.255583047866821 0.941167175769806 -1.0485520362854 -0.76637852191925 -0.833562135696411 0.841092705726624 0.31526118516922 -1.23909413814545
weekendje 0.816085338592529 0.523376822471619 -1.51751148700714 1.29552817344666 -1.62846052646637 1.6314435005188 -0.397120743989944 -0.108086638152599 0.809839010238647 -0.742589950561523 -0.65734452009201 -0.326704561710358 0.747885882854462 0.162059634923935 -1.50474381446838
ongeveer 1.21303629875183 0.726712703704834 1.2983934879303 0.744100391864777 -1.44958972930908 -1.15486145019531 -0.68033504486084 1.12054812908173 0.225240334868431 -1.23048627376556 -0.738393783569336 -1.21085298061371 1.17981851100922 0.15318264067173 -0.78470641374588
raam 1.9329069852829 0.588058054447174 0.60328996181488 1.21967256069183 -0.862177789211273 -0.41242915391922 -0.354641318321228 1.00487303733826 0.357205837965012 -0.617119550704956 -1.61429464817047 -0.901538610458374 1.12814819812775 0.29934373497963 -1.31454622745514
behulpzame 0.958891153335571 -0.223128631711006 -1.15029203891754 1.54334127902985 0.296683669090271 0.343270301818848 -1.02335715293884 1.33762443065643 1.57696545124054 -0.252719551324844 -1.19886887073517 -1.7040878534317 -0.620515882968903 -0.0656380280852318 -0.0455591902136803
binnenstad 1.07279241085052 0.777607500553131 0.597002625465393 0.969108402729034 -1.39223515987396 -0.829535722732544 -1.02142107486725 1.68512189388275 0.888947904109955 -1.05399858951569 -0.963242828845978 -1.4553656578064 0.67289400100708 -0.0655630379915237 -0.187936320900917
ontzettend 1.6881388425827 0.137082725763321 -0.871583759784698 1.55611419677734 -0.360334128141403 0.0188788156956434 -0.775104284286499 1.42927122116089 0.93095338344574 -0.0159416869282722 -1.71112680435181 -0.950469315052032 0.275273650884628 0.118235036730766 -1.17831122875214
best 2.12328791618347 -0.210972085595131 -0.916911780834198 1.555291056633 -0.247877061367035 0.891237556934357 0.106355391442776 0.0507347844541073 0.201949700713158 0.186433345079422 -1.55009293556213 -0.440168529748917 0.495899140834808 0.364052474498749 -1.80757367610931
thee 1.37029945850372 0.459821730852127 -0.742513179779053 1.24809169769287 -0.79972505569458 0.284874349832535 -0.538568913936615 1.82949256896973 0.242829203605652 -0.0748410895466805 -1.67201638221741 -0.32043194770813 0.608867824077606 0.549199461936951 -1.67593312263489
3 1.70365798473358 0.702744841575623 0.523267030715942 1.27044713497162 -1.25490260124207 0.276428580284119 -0.22560128569603 0.227450743317604 1.05777156352997 -0.882099151611328 -1.32475996017456 -0.741280972957611 1.35283088684082 -0.26535028219223 -1.36381924152374
lokatie 0.907152950763702 0.776391863822937 -0.438756972551346 1.22889721393585 -0.377296894788742 -0.281360328197479 -1.2272264957428 1.89348745346069 1.46819293498993 -0.403607815504074 -1.38459229469299 -1.5115532875061 0.0616607218980789 -0.00936778355389833 0.185550794005394
reageerde 1.86758995056152 -0.54818457365036 -0.949306547641754 1.48100137710571 1.04096841812134 0.899770259857178 0.118885740637779 0.0728277042508125 1.20390176773071 0.633707165718079 -1.82049906253815 -0.231710344552994 0.100348152220249 -0.0101408688351512 -0.987608253955841
kant 1.9253603219986 0.579149723052979 0.138724103569984 1.00852108001709 -1.10840392112732 0.0736095160245895 -0.107602834701538 0.79378205537796 -0.71388566493988 -0.39280578494072 -1.41327965259552 -0.285980015993118 0.95722359418869 0.776652812957764 -1.9450010061264
min 1.38977921009064 0.623705327510834 1.40968286991119 0.734319448471069 -1.58700096607208 -0.979778409004211 -0.462302595376968 0.751173257827759 0.142914801836014 -1.28158807754517 -0.685996294021606 -0.901986539363861 1.40299260616302 0.16334031522274 -0.976944267749786
z 1.59859395027161 0.180383607745171 -1.00654184818268 1.43733966350555 -0.948962330818176 0.738548994064331 -0.457141399383545 1.04055857658386 1.23186016082764 -0.0606987364590168 -1.64729785919189 -0.754115223884583 0.367466956377029 -0.0491683259606361 -1.28618407249451
binnen 2.1601767539978 0.117824107408524 0.833056807518005 0.950626134872437 -0.965577244758606 0.00479133939370513 0.362169682979584 -0.242313429713249 -0.20818130671978 -0.52829784154892 -1.13848984241486 -0.191986545920372 1.31339120864868 0.087605394423008 -2.05224442481995
konden 2.49463105201721 -0.801266074180603 -0.375894069671631 0.901148617267609 0.0851555094122887 1.19172096252441 0.576788306236267 -0.704858183860779 0.63067889213562 0.738585352897644 -1.46194541454315 0.299357801675797 0.0691867396235466 -0.967878997325897 -0.901510715484619
voor 0.624715030193329 0.842052042484283 -1.66511464118958 1.3043657541275 -1.27662241458893 0.954475283622742 -0.417925983667374 0.143401473760605 -0.0778449028730392 -0.710018575191498 -0.313526183366776 0.584702253341675 0.953868985176086 0.915195405483246 -1.9982191324234
bad 0.0804176479578018 0.467681616544724 -0.589327096939087 0.799791574478149 -0.442981898784637 -0.476323664188385 -1.049400806427 2.84713125228882 1.00756633281708 -0.0134603129699826 -1.12475514411926 -1.32960963249207 -0.199703276157379 0.00747990841045976 -0.262825846672058
kunnen 1.6271231174469 -0.276850581169128 -1.14825892448425 1.2767745256424 -0.232734799385071 1.28552532196045 0.39567032456398 -0.214013174176216 0.0663547515869141 0.4184330701828 -1.18715250492096 0.375304460525513 0.902709186077118 0.314907014369965 -2.18502926826477
persoonlijk 2.02002024650574 -0.442186623811722 -1.20064628124237 1.53801190853119 0.590756356716156 0.911843121051788 0.0103654488921165 0.0396952666342258 0.896876931190491 0.632800400257111 -1.77406418323517 -0.220317974686623 0.133464649319649 -0.0892806500196457 -1.14384019374847
makkelijk 2.14147138595581 0.177900388836861 1.41823661327362 1.29604279994965 -0.593166053295135 -0.803470134735107 0.0167242996394634 -0.0235141348093748 -0.157907530665398 -0.784871220588684 -1.08266568183899 -1.24929988384247 1.02172434329987 0.531630873680115 -0.996323466300964
ten 1.03716194629669 0.824774742126465 0.483669310808182 0.850511908531189 -1.56019556522369 -0.793260276317596 -1.15850067138672 1.696772813797 0.841144740581512 -1.19162499904633 -0.729786336421967 -1.3574835062027 0.700748920440674 -0.0552909038960934 -0.0717522725462914
genoeg 0.60157185792923 0.872227132320404 0.315728008747101 0.748822867870331 -1.17202246189117 -1.15925455093384 -1.22904360294342 2.28539180755615 0.616974592208862 -0.703264653682709 -0.932031035423279 -1.27407252788544 0.537227272987366 0.189079150557518 -0.272567301988602
had 2.01418900489807 -0.773571908473969 -1.21894550323486 1.045334815979 0.847943365573883 0.178842291235924 0.0299140252172947 0.967861831188202 0.249382585287094 1.28423881530762 -1.56252360343933 0.382730394601822 -0.154254585504532 -0.101051300764084 -1.32060706615448
dagen 0.277118742465973 0.441999316215515 -1.02417957782745 0.746294558048248 -2.12071180343628 1.91106939315796 0.0152584118768573 -0.886388003826141 0.948939383029938 -0.986945688724518 0.0368922911584377 -0.641649544239044 0.671122431755066 -0.410769909620285 -1.13122069835663
</s> -0.512466430664062 -1.45860719680786 1.0252697467804 -1.3493903875351 0.101837374269962 0.908653199672699 1.55333173274994 0.434133559465408 1.29402780532837 -0.592992186546326 -0.160214766860008 1.09801268577576 1.48932754993439 -0.905412375926971 -0.0718281269073486
bedankt 0.765326797962189 0.269095301628113 -1.54606568813324 1.24831640720367 -1.20773041248322 1.51739740371704 -0.101662397384644 -0.443023681640625 0.448974370956421 -0.441041439771652 -0.804319202899933 -0.0876742973923683 0.80683958530426 0.534731686115265 -2.10663199424744
wel 1.38230836391449 0.0523330755531788 -0.127764701843262 0.690064549446106 0.0427654460072517 -0.231430262327194 0.331704050302505 0.337527483701706 -0.385477900505066 0.515431702136993 -1.52334868907928 0.970117688179016 1.33869683742523 0.683482944965363 -2.52574563026428
uitzicht 0.25107616186142 0.950484097003937 0.539596438407898 0.626871168613434 -1.56248712539673 -0.395371437072754 -0.965920805931091 1.14729821681976 1.69982361793518 -1.27738559246063 -0.486906141042709 -1.73836648464203 0.405184328556061 -0.643513023853302 0.379518121480942
waard 1.38968992233276 0.509724259376526 -0.680842816829681 1.41323804855347 -1.13021504878998 0.0384024754166603 -0.890296995639801 1.60526120662689 0.694110929965973 -0.490658730268478 -1.35403561592102 -1.05915248394012 0.543357610702515 0.228576064109802 -1.29404878616333
warme 1.00928843021393 -0.498613625764847 -1.75333869457245 1.47113466262817 -0.208497196435928 1.06834149360657 -0.88227105140686 0.932440757751465 1.40243995189667 -0.285950601100922 -0.797824084758759 -1.43229162693024 -0.889842212200165 -0.339189350605011 0.134756729006767
david 1.18830847740173 -0.0890155807137489 -1.36504018306732 1.48800814151764 0.107795506715775 0.651594340801239 -0.39967954158783 1.18708395957947 1.19133913516998 0.389726340770721 -1.85242438316345 -1.09000837802887 -0.347766757011414 0.249796062707901 -1.05984842777252
levendige 0.424053966999054 1.08069455623627 -0.0426782965660095 1.30121350288391 -1.09302246570587 -0.157618820667267 -0.906501531600952 0.786567509174347 1.37201988697052 -1.12897968292236 -0.966042518615723 -2.18085050582886 0.325773030519485 0.4283826649189 -0.401624172925949
gebruiken 2.09829497337341 0.0759269446134567 -0.653405666351318 1.37578678131104 -1.05172693729401 1.25177347660065 0.0553359277546406 -0.135509461164474 0.396504491567612 -0.297006666660309 -1.3367565870285 -0.378117024898529 0.717371821403503 -0.0765857547521591 -1.69745862483978
heerlijke 0.144147798418999 0.332759261131287 -1.35739707946777 0.916133522987366 -1.32479691505432 1.67276442050934 -0.193188652396202 0.258268415927887 1.78367960453033 -0.282117962837219 -0.769905805587769 -1.53986072540283 -0.256182312965393 -0.557241380214691 -0.963448286056519
prima 0.376895219087601 0.587269723415375 0.605322003364563 0.471583008766174 -0.538848459720612 -1.58262932300568 -1.2612452507019 2.50515842437744 1.09029960632324 -0.356568992137909 -0.66942298412323 -1.0483535528183 0.532430708408356 -0.298926591873169 0.163465991616249
wanneer 1.54075193405151 0.114745244383812 -1.00252079963684 1.42193400859833 -0.650839567184448 0.573807656764984 -0.431181520223618 0.80749899148941 0.284907072782516 -0.0903491228818893 -1.35657405853271 -0.219605639576912 1.02336227893829 0.535432279109955 -2.16410303115845
dichtbij 0.738729417324066 0.794007062911987 1.27830517292023 0.554801523685455 -1.36046600341797 -1.51848697662354 -0.991969048976898 1.40382432937622 0.708819150924683 -1.21289169788361 -0.326518923044205 -1.37382733821869 0.86868691444397 -0.110672153532505 0.190146893262863
hebt 0.636768043041229 -0.429930418729782 -0.94206166267395 0.364852964878082 -0.442751824855804 -0.817954957485199 -0.347735494375229 2.29004716873169 -0.682177066802979 0.76934552192688 -0.471617341041565 0.442923933267593 0.745214998722076 0.316943645477295 -2.24212193489075
lekker -0.388562351465225 0.684823989868164 -0.698105812072754 0.654787123203278 -0.810016810894012 -0.21777468919754 -1.36988651752472 2.0566143989563 2.02744674682617 -0.35878923535347 -1.06814360618591 -0.995803773403168 0.504140615463257 -0.0818225592374802 0.146468058228493
van 2.06423616409302 0.130642876029015 0.903275430202484 0.203573614358902 -2.51235771179199 -0.266945600509644 -0.258686274290085 0.905015885829926 -0.0869286134839058 -0.809668064117432 -0.33778503537178 -0.740771770477295 -0.0259986706078053 -1.1177966594696 0.138698905706406
behulpzaam 0.451657891273499 -0.10986240953207 -1.24255502223969 0.992617130279541 0.449200123548508 -0.0194914899766445 -1.57095122337341 1.3498158454895 1.65599131584167 0.0460576973855495 -0.805089712142944 -0.934077560901642 -0.892427623271942 -0.309324026107788 1.61413967609406
dat 1.46369481086731 -0.618732273578644 -1.20962905883789 0.542484641075134 0.412065535783768 -0.102120339870453 0.0827202051877975 0.871490359306335 0.79712587594986 1.26086366176605 -1.78833675384521 1.34889483451843 0.405168831348419 -0.0921488702297211 -1.53466832637787
verzorgd -0.148088172078133 0.799489259719849 -0.332676082849503 0.750557541847229 0.475623339414597 -0.930007338523865 -1.53929793834686 2.09674739837646 1.73135530948639 -0.0739154145121574 -1.0428946018219 -1.0567262172699 0.0853918865323067 -0.157609090209007 0.753969967365265
bed -0.570700943470001 0.550309896469116 -0.311870843172073 0.552226781845093 -0.795536041259766 -0.647449612617493 -1.05933332443237 2.87244009971619 0.972212076187134 -0.338194042444229 -0.661185026168823 -1.42406892776489 -0.132801204919815 0.005101571790874 -0.0412998609244823
kortom -0.411198347806931 0.912667453289032 -1.49446666240692 1.30136632919312 -1.27311050891876 1.53161764144897 -0.783858299255371 0.48647403717041 1.03719127178192 -1.12483692169189 -0.449224203824997 -1.03116154670715 0.423034220933914 0.677398860454559 -1.00462400913239
waren 1.23944294452667 0.0347881577908993 -1.04959452152252 0.298345267772675 0.758445978164673 0.747279584407806 -0.220456600189209 0.908679306507111 1.83618414402008 0.855341196060181 -1.98489713668823 0.73612916469574 0.300487041473389 -1.15985870361328 -0.493454068899155
ligging 0.584253907203674 0.61438000202179 0.40836575627327 0.749411940574646 -0.238052010536194 -1.29382824897766 -1.16909182071686 2.01039624214172 1.53304004669189 -0.468917518854141 -0.698592841625214 -1.59856677055359 0.118443176150322 -0.497931301593781 0.733597934246063
foto 0.281992733478546 1.99696445465088 1.31934452056885 0.271606922149658 0.834479033946991 -0.822141528129578 -0.606225669384003 0.971693992614746 0.833961248397827 -0.306668192148209 -1.66456973552704 0.0953024700284004 1.64237999916077 0.407216191291809 -0.0394115634262562
ging 1.91034471988678 0.0538516752421856 -0.521787941455841 1.54668009281158 -0.381111294031143 0.166989371180534 -0.235511183738708 0.951275765895844 0.804001569747925 0.0752248838543892 -1.75136530399323 -0.748008608818054 0.659060597419739 0.133276030421257 -1.67889285087585
aankomst 1.36206078529358 -0.958828508853912 -1.88360702991486 1.16717505455017 0.596609652042389 1.17498958110809 -0.20262499153614 0.313554227352142 1.3445121049881 0.944181442260742 -1.26193940639496 0.168063923716545 -0.743827283382416 -0.730044960975647 0.181861087679863
omgeving 0.777081429958344 1.03718137741089 0.555339992046356 0.901756763458252 -1.03308665752411 -0.78271347284317 -0.868788540363312 1.46030282974243 1.34690368175507 -0.87720000743866 -0.90468841791153 -2.00387787818909 0.221762403845787 -0.351809620857239 0.202683880925179
gratis 2.07019948959351 0.432177305221558 1.09306466579437 1.26254093647003 -0.982734858989716 -0.21228714287281 0.145627528429031 0.221861898899078 0.59155809879303 -0.541065573692322 -1.50133836269379 -1.2912415266037 0.779769062995911 -0.0988464131951332 -1.21474623680115
huis -0.0090861851349473 0.334499061107635 -1.12602245807648 1.09313905239105 0.103346012532711 0.0551255829632282 -1.33544385433197 1.07178902626038 2.35722994804382 -0.362312734127045 -0.846099853515625 -1.23780059814453 -0.109102867543697 -0.508964955806732 1.12805080413818
dag 1.87183892726898 -0.576206564903259 -1.06101047992706 1.10765695571899 -0.0315805114805698 1.19464409351349 0.698616325855255 -0.111192464828491 -0.209144800901413 0.646776854991913 -1.34282982349396 0.421302974224091 0.287987768650055 0.156510382890701 -2.08153200149536
lopen 1.45201885700226 0.47810623049736 1.77476382255554 0.546773493289948 -1.34941256046295 -1.0539083480835 -0.102875486016273 0.262312829494476 -0.390432298183441 -1.19212627410889 -0.49738821387291 -0.613966464996338 1.50640749931335 0.316648900508881 -1.27898275852203
alleen 1.59080910682678 -0.497440874576569 -1.24522292613983 1.0168297290802 0.798016905784607 0.555637240409851 0.407288819551468 0.533289611339569 0.500968277454376 1.31855738162994 -1.68232893943787 0.289409279823303 0.30219367146492 0.00670306943356991 -1.80183041095734
contact 1.31070387363434 -0.97129625082016 -1.05571579933167 1.32081949710846 1.04771733283997 1.25259220600128 0.737792491912842 -0.660285890102386 1.29879200458527 0.965228617191315 -1.30650568008423 -0.633122861385345 -0.819365382194519 -0.403457850217819 -0.521593630313873
zeer 0.0994966924190521 -0.0124403703957796 -1.11466002464294 0.97921222448349 0.617572486400604 -0.0218309238553047 -1.31931602954865 1.3397102355957 1.78812968730927 0.160671144723892 -0.669425427913666 -1.31125473976135 -1.07529425621033 -0.607904434204102 1.39813637733459
vervoer 1.71159040927887 0.0308827608823776 2.0269410610199 0.958036124706268 -1.07182323932648 -1.64488744735718 0.0522694066166878 0.647523462772369 -0.187627851963043 -0.708489179611206 -0.839990675449371 -0.895873188972473 0.573341548442841 -0.0269804745912552 -0.626035034656525
man 1.52646732330322 -0.1538475304842 -1.32739400863647 1.8640034198761 0.0579296350479126 0.790449678897858 -0.813209891319275 0.702989399433136 1.22581195831299 -0.268415689468384 -1.31876945495605 -1.43128669261932 -0.281075268983841 -0.0161892473697662 -0.429431527853012
zullen 1.74630880355835 0.0352674052119255 -0.936373472213745 1.50685369968414 -0.745067298412323 1.12084019184113 -0.174902006983757 -0.151037365198135 0.584280848503113 -0.387598425149918 -1.30712020397186 -0.373898208141327 0.927662968635559 0.270213395357132 -1.91399908065796
gastvrouw 0.241224512457848 -0.487214058637619 -1.70047295093536 1.14798855781555 0.593339025974274 0.446597307920456 -1.08728671073914 1.41542565822601 1.15717911720276 0.0781293287873268 -0.407135337591171 -1.4228218793869 -1.50068509578705 -0.239223897457123 0.955610930919647
tegenover 1.63034474849701 0.280404388904572 -0.560572326183319 1.53197848796844 -0.863027691841125 0.184219002723694 -0.542034506797791 0.784379839897156 0.623348236083984 -0.481538832187653 -1.4815034866333 -0.874604821205139 0.962918937206268 0.435388714075089 -1.79369425773621
geweldig -0.680438458919525 1.33863353729248 -0.479584246873856 0.573219537734985 -1.2311840057373 0.0652065649628639 -0.937854170799255 1.05030190944672 2.26441812515259 -0.510757446289062 -1.10029339790344 -0.572491765022278 1.14215648174286 0.039118554443121 -0.671418964862823
perfecte 0.252853840589523 0.962150394916534 0.128001391887665 1.03850257396698 -1.44109559059143 -0.157088220119476 -1.09810769557953 0.782002389431 1.23829817771912 -1.52976548671722 -0.0406473837792873 -2.19400095939636 0.549337446689606 0.0694424510002136 0.0347748212516308
hartelijk 1.27375328540802 -0.916593670845032 -1.53037214279175 1.26177704334259 1.23192119598389 1.27271032333374 -0.529560446739197 -0.196229577064514 1.15719366073608 0.541276931762695 -0.9980149269104 -0.671246111392975 -1.0235607624054 -0.64974319934845 0.77356344461441
verwacht 1.44410490989685 0.112231001257896 -0.961196660995483 1.27671241760254 -0.471693962812424 0.219133302569389 -0.652501583099365 1.15839719772339 1.02727138996124 0.136889308691025 -1.45624101161957 -0.0354422591626644 1.26452910900116 -0.177685141563416 -1.86638379096985
zonder 2.14524483680725 0.0140514858067036 -0.610324203968048 1.62361693382263 -0.268360793590546 0.679970443248749 -0.336629033088684 0.61600124835968 1.04406404495239 -0.0874069705605507 -1.79769265651703 -0.930832982063293 0.300625622272491 -0.133479207754135 -1.02853965759277
net 0.793282330036163 1.37764620780945 0.465536564588547 1.26301681995392 -0.204066753387451 -0.502241611480713 -1.17978513240814 0.741111934185028 1.5678117275238 -0.808177351951599 -1.65067994594574 -1.10614740848541 1.05646944046021 0.47994127869606 -0.140952080488205
stad 2.11737298965454 0.36930376291275 1.10062479972839 0.870851159095764 -1.08192896842957 0.436306953430176 0.475205332040787 -0.366248488426208 -0.105645351111889 -0.945603787899017 -0.661590456962585 -2.17646813392639 -0.436834394931793 -0.647076010704041 -0.0110974395647645
vlakbij 0.998364925384521 0.82792717218399 1.38724899291992 0.692224740982056 -1.54844105243683 -1.0210976600647 -0.82816880941391 0.931878447532654 0.700865864753723 -1.42889559268951 -0.497533023357391 -1.57876658439636 0.801811456680298 -0.0516289100050926 0.0321670286357403
locatie 0.358029901981354 0.975142657756805 0.763148427009583 0.519670248031616 -1.0606803894043 -1.15263831615448 -1.31551420688629 1.36102318763733 1.06315886974335 -1.3880820274353 0.081524521112442 -1.57741034030914 0.577445805072784 -0.329340308904648 1.01883447170258
fijne -0.40777787566185 0.612608551979065 -0.677501916885376 0.739877581596375 -0.826542496681213 0.285372674465179 -1.02265357971191 1.89035701751709 1.42018580436707 -0.620744049549103 -0.388980895280838 -2.23477077484131 -0.61232727766037 -0.194283708930016 0.328134685754776
verdieping 2.01974320411682 0.438882797956467 0.561680674552917 1.1738098859787 -0.291650146245956 -0.643463551998138 -0.300938606262207 1.37332141399384 0.327509939670563 -0.219686284661293 -1.70915198326111 -0.893391311168671 0.921168684959412 0.141061291098595 -1.34747886657715
maken 2.58032870292664 -0.470992803573608 0.642464637756348 0.802518427371979 -1.4915132522583 0.143625497817993 0.212781071662903 0.713563561439514 -1.57248878479004 -0.342015534639359 -0.592358112335205 -0.656875789165497 -0.107894867658615 -0.0930239111185074 -0.933391034603119
onderhouden 0.752098143100739 0.539193391799927 -0.912271678447723 1.180535197258 -0.572466850280762 -0.173438102006912 -1.46974515914917 1.94332575798035 1.645916223526 -0.329656094312668 -1.23775720596313 -1.07750070095062 0.110486887395382 -0.200106143951416 0.245435267686844
parkeergarage 1.5715993642807 0.857738137245178 1.08231103420258 1.02269041538239 -1.53686451911926 -0.825311660766602 -0.621396660804749 0.815371215343475 0.40489673614502 -1.17182981967926 -0.907791197299957 -1.26107656955719 1.04481506347656 0.169322118163109 -0.641231536865234
snel 1.69754493236542 -1.12712347507477 -1.16564977169037 1.32397413253784 1.31000328063965 0.751879155635834 0.370863169431686 0.0345325581729412 0.7970290184021 1.06150722503662 -1.52517974376678 0.00309245381504297 -0.333311408758163 0.17015215754509 -1.04299557209015
verder 0.980701386928558 0.615161776542664 -0.407613337039948 1.21148812770844 0.353773266077042 -0.996194303035736 -0.969210028648376 1.9235075712204 0.954218089580536 0.00324009661562741 -1.59670233726501 -0.999693334102631 0.647200763225555 0.673815369606018 -0.967914342880249
gezellig -0.237740933895111 1.0777599811554 -0.504140138626099 0.660109281539917 -0.437932699918747 -0.18777234852314 -1.38072049617767 1.65594005584717 1.99790668487549 -0.408695250749588 -1.10120368003845 -1.45681130886078 -0.149260327219963 -0.0434300042688847 0.835862338542938
extra 1.7264404296875 -0.159499570727348 -1.31927013397217 1.49936366081238 0.0649592503905296 0.948179364204407 -0.105317540466785 0.392814010381699 0.459842383861542 0.320370823144913 -1.56717276573181 -0.051553413271904 0.547228097915649 0.261866807937622 -1.94831395149231
zich 1.79116225242615 0.243592083454132 -0.535919904708862 1.51021993160248 -0.158886596560478 -0.146257951855659 -0.837460577487946 0.818787336349487 1.88244664669037 -0.0974504128098488 -1.6333943605423 -0.945006906986237 0.652846336364746 -0.343121647834778 -0.296612530946732
zelfs 0.991880059242249 -0.202745288610458 -1.60966527462006 0.753844618797302 0.413253724575043 0.150660440325737 -0.808457970619202 2.41006302833557 0.148969948291779 1.00852584838867 -1.32043695449829 0.892571091651917 -0.0863577872514725 0.000567034177947789 -0.757144629955292
weekend -0.192847460508347 0.181919559836388 -1.53458440303802 0.680793285369873 -1.19912314414978 2.17306399345398 0.143720984458923 -0.742207646369934 1.92750334739685 -0.264779061079025 -0.226457953453064 -0.460832685232162 0.203370794653893 -0.933002591133118 -0.647126317024231
ligt 0.293918132781982 1.32805669307709 1.33361208438873 0.510818719863892 -1.18896961212158 -1.33770644664764 -1.0401771068573 0.459459543228149 1.26434242725372 -1.24705982208252 -0.475899338722229 -1.36962306499481 0.942574083805084 0.138561710715294 0.671215295791626
tips 2.02093267440796 -0.766558706760406 -0.956797242164612 1.30566477775574 0.178337216377258 1.09851384162903 0.654802918434143 -0.488341897726059 -0.345472276210785 0.415860176086426 -0.646957278251648 -1.5257533788681 -1.4817636013031 -0.212531730532646 -0.722949504852295
helemaal 1.47165167331696 0.346046835184097 -0.521556794643402 1.34362065792084 1.04033589363098 -0.435252457857132 -0.902197122573853 1.02210807800293 1.91593837738037 0.298743188381195 -1.79089677333832 -0.369322210550308 0.62357085943222 -0.0568782463669777 0.104385353624821
doen 2.22740340232849 -0.44798681139946 0.160361856222153 1.09737277030945 0.414561808109283 -0.216624841094017 0.654067695140839 0.348032265901566 -0.56919002532959 0.602568805217743 -1.45712912082672 -0.477143317461014 0.740498006343842 0.371984302997589 -2.0287070274353
zij 1.8084579706192 -0.0423729307949543 -1.34917509555817 1.68317341804504 -0.337372899055481 1.03598082065582 -0.427941650152206 0.265046089887619 0.93048232793808 -0.0732453390955925 -1.50261270999908 -0.280552446842194 0.588891863822937 0.14312818646431 -1.43487894535065
zoals 0.419620871543884 1.45687091350555 0.998470544815063 0.486156940460205 0.934171438217163 -0.740092217922211 -0.939400792121887 1.41061091423035 1.33831691741943 0.214381650090218 -1.99239456653595 0.25173145532608 1.09597623348236 0.221879288554192 0.234501495957375
kinderen 1.17446219921112 0.750753045082092 -0.241370499134064 1.33994114398956 -1.44239270687103 0.355119615793228 -0.309881746768951 0.730428099632263 0.817601203918457 -0.689187526702881 -1.38332068920135 -0.999237895011902 1.03133893013 0.373722851276398 -1.76304149627686
verschillende 1.96967244148254 0.408396661281586 0.136280968785286 1.33443021774292 -0.89008492231369 -0.188223227858543 -0.436957120895386 1.31441175937653 0.370375066995621 -0.344952762126923 -1.6143079996109 -1.12634646892548 0.522585153579712 0.106220662593842 -1.41168057918549
voorzien 0.376471906900406 0.13392561674118 -0.759721696376801 -0.121187604963779 -1.94310927391052 -0.19918467104435 -1.06079316139221 2.87033581733704 -0.368528634309769 -0.102454610168934 0.00687968451529741 -0.0615480877459049 -0.700709581375122 -0.313540458679199 0.574077665805817
iemand 2.05292272567749 0.125481873750687 -0.568104147911072 1.4817932844162 -0.518257796764374 0.552024006843567 -0.125104680657387 0.338066905736923 0.34595912694931 -0.0250890497118235 -1.6754195690155 -0.37334331870079 0.898169457912445 0.411502301692963 -1.87223625183105
dus 1.70794951915741 0.567150115966797 0.824205160140991 1.08072853088379 -0.755999207496643 -0.641308963298798 -0.126297622919083 0.27433180809021 0.0965564474463463 -0.596887648105621 -1.27776610851288 -0.175403967499733 1.71674585342407 0.538682579994202 -1.8903694152832
centraal 0.298041850328445 1.02003955841064 0.4129698574543 0.865024864673615 -1.0025954246521 -0.736234664916992 -1.34511685371399 0.596680402755737 1.85197865962982 -1.36323297023773 -0.464120894670486 -1.40013873577118 0.744304895401001 -0.280551344156265 1.06890046596527
gezien 2.13878655433655 -0.512813031673431 -0.931478440761566 1.23934936523438 0.267595916986465 1.02036190032959 0.308022439479828 -0.366037160158157 0.762160241603851 0.577767133712769 -1.69230580329895 0.147891566157341 0.353222042322159 -0.11277474462986 -1.57461488246918
cafes 0.567295491695404 1.00811219215393 0.358952403068542 1.20101749897003 -0.77400815486908 -0.240348428487778 -0.465921700000763 0.707224249839783 1.31020104885101 -0.894626379013062 -1.06280100345612 -2.62213921546936 -0.177784964442253 0.206435784697533 -0.346589475870132
werden 1.75572764873505 -0.828803420066833 -0.939362406730652 1.08044588565826 1.14696836471558 1.38897204399109 -0.2549809217453 -0.609580814838409 1.17943000793457 0.495799750089645 -1.08364975452423 -0.571719288825989 -0.746008634567261 -1.04551517963409 0.843619048595428
keuken 0.289979994297028 0.243426561355591 -0.300491243600845 0.286531418561935 -0.52427476644516 -0.809097170829773 -0.681992828845978 3.34485363960266 -0.335490107536316 0.349474728107452 -0.84438419342041 -0.837159335613251 -0.612844109535217 0.0153508204966784 -0.277984231710434
wegwijs 1.91860103607178 -0.354594141244888 -1.47262012958527 1.61765360832214 -0.204016581177711 0.915223956108093 -0.677076756954193 0.79861855506897 1.14324963092804 0.182494774460793 -1.46912550926208 -0.723297834396362 -0.310785204172134 -0.435787737369537 -0.352173388004303
warm 1.11024606227875 -0.626916289329529 -2.0426619052887 1.15307211875916 0.610485732555389 1.37025690078735 -0.346462666988373 0.75162547826767 1.27180695533752 0.782752513885498 -1.30810475349426 -0.0019051181152463 -0.697936713695526 -0.636412024497986 -0.321776151657104
centrum 1.15775454044342 0.457578510046005 1.4995402097702 0.430752605199814 -2.05335831642151 -1.02456402778625 -0.486642986536026 0.125885292887688 0.499336659908295 -1.58305358886719 -0.0110876867547631 -1.17086589336395 1.05325138568878 -0.461962461471558 0.219508498907089
aardige 1.13601922988892 -0.369634360074997 -1.57371366024017 1.44127678871155 -0.301852375268936 0.67242842912674 -0.815413892269135 1.48664689064026 1.0534793138504 -0.00797801557928324 -1.22330188751221 -1.48839366436005 -0.703854739665985 0.137150764465332 -0.514582931995392
beetje 1.10241222381592 0.302596479654312 -1.02113664150238 1.58466482162476 -0.398112833499908 0.468264669179916 -0.136159107089043 0.549921989440918 1.11966395378113 0.00286052492447197 -1.63226974010468 -1.00295317173004 0.573212742805481 0.417997151613235 -2.00333523750305
mail 1.86340367794037 -0.253948718309402 -1.11376011371613 1.5601806640625 0.444614499807358 0.655932426452637 -0.405925422906876 0.85603803396225 1.42866325378418 0.490623980760574 -1.73721504211426 -0.749896585941315 -0.272561132907867 -0.321968823671341 -0.472334653139114
loopafstand 1.15481889247894 0.816901206970215 1.97643291950226 0.416704267263412 -1.47267067432404 -1.23253881931305 -0.416517823934555 0.695655047893524 0.247345417737961 -1.35793936252594 -0.219187021255493 -1.22672939300537 1.04161608219147 -0.169863551855087 -0.0435644462704659
er 0.778694689273834 0.405935257673264 -0.607628226280212 0.44061541557312 1.08467352390289 -0.806862950325012 -0.447492688894272 1.81609392166138 0.485516279935837 1.08020401000977 -1.52477538585663 1.04094922542572 1.10482382774353 0.285050272941589 -1.49215686321259
plek 0.560927450656891 0.974777281284332 0.541232109069824 1.20731484889984 -1.14910900592804 -0.193930193781853 0.154807329177856 -0.271858751773834 -0.224693194031715 -1.05716812610626 -0.0244891103357077 -2.24081206321716 1.04664409160614 0.88608580827713 -1.56784999370575
onze 2.40624737739563 -0.786340773105621 -0.998441815376282 1.19096720218658 0.311389267444611 1.47763669490814 0.336617797613144 -0.637672364711761 0.726454615592957 0.664742469787598 -1.25101506710052 0.118854746222496 -0.566409885883331 -0.704728186130524 0.0989674925804138
weg 1.86708629131317 -0.224897563457489 -1.37401282787323 1.42173039913177 0.301171183586121 1.1860294342041 0.0284730698913336 -0.093264602124691 1.05612635612488 0.48950457572937 -1.72783327102661 0.064568392932415 0.29663273692131 -0.0129017159342766 -1.27064919471741
bevindt 1.28383147716522 0.749820530414581 -0.155033022165298 1.424959897995 -1.223992228508 -0.32575786113739 -0.913123726844788 0.994118571281433 1.22191309928894 -0.831588745117188 -1.2665411233902 -1.26404929161072 0.970223903656006 0.195166707038879 -0.970914781093597
uitvalsbasis 1.36265182495117 0.959144592285156 0.519675374031067 1.21101558208466 -1.7413547039032 0.101223185658455 -0.531406939029694 0.391562521457672 0.420677363872528 -1.4661180973053 -0.47180512547493 -1.6032737493515 1.02123486995697 0.122309222817421 -0.911528587341309
verblijf -0.23477266728878 -0.190738528966904 -2.44753861427307 0.806221842765808 -0.950289189815521 1.85916483402252 -0.378433704376221 0.230232566595078 1.61460208892822 0.110670551657677 0.164940357208252 0.35345259308815 -0.157037138938904 -0.957178473472595 -0.0112821282818913
vragen 1.88894236087799 -0.871956288814545 -0.911296010017395 1.64628863334656 0.958711564540863 0.619466185569763 0.124807603657246 0.3074951171875 1.0305118560791 0.775912582874298 -1.62094151973724 -0.743904709815979 -0.357014119625092 -0.213530287146568 -0.836643397808075
via 2.09928870201111 -0.034104697406292 -0.644608676433563 1.60262012481689 0.246655702590942 0.322155177593231 -0.382745832204819 0.979928135871887 0.94288694858551 0.25402557849884 -1.96941757202148 -0.795704245567322 0.129610925912857 0.0581589043140411 -0.922518670558929
genoten 0.885979235172272 0.455452591180801 -0.953715085983276 0.770609021186829 -1.82089149951935 1.96294343471527 -0.101081900298595 -0.796309471130371 1.64814972877502 -0.776620149612427 -0.260847002267838 -0.168088555335999 0.441875636577606 -1.03281307220459 -0.115261673927307
restaurants 0.813636064529419 1.19779562950134 1.26968622207642 0.698411285877228 -1.49832105636597 -0.856565117835999 -0.111817069351673 0.823597252368927 -0.0725880041718483 -0.909909725189209 -0.799243688583374 -2.0395872592926 0.309548437595367 0.619154632091522 -1.01135110855103
later 1.48754155635834 0.190880477428436 -1.30021524429321 1.50722813606262 -0.0892986804246902 0.817056477069855 -0.503849029541016 0.549012959003448 1.53152012825012 0.11286299675703 -1.75800466537476 -0.274444490671158 0.683133125305176 -0.0329122915863991 -1.25128245353699
buurt -0.475632876157761 1.71941602230072 0.887454271316528 0.546095728874207 -0.898502588272095 -0.861118316650391 -0.205727949738503 0.506504952907562 1.07854151725769 -0.905562460422516 -0.724346458911896 -2.48137879371643 0.0383192449808121 0.459910571575165 0.0753843858838081
openbaar 1.84614086151123 -0.269493222236633 2.00799918174744 0.932315528392792 -0.86804986000061 -1.40902388095856 0.175272479653358 0.712124645709991 -0.0392469391226768 -0.403288185596466 -1.00576424598694 -0.997153222560883 0.736241281032562 -0.176154598593712 -0.773319244384766
voelden 1.54448699951172 -0.78108674287796 -1.86008751392365 1.18223822116852 0.890087366104126 1.35210728645325 -0.217407256364822 -0.215603947639465 1.27622294425964 0.788330972194672 -1.03319108486176 0.279398292303085 -0.496182322502136 -0.883027493953705 0.104677483439445
zou 0.919040381908417 0.0304036531597376 -1.18099999427795 0.844794392585754 -0.56980562210083 0.901291191577911 0.0143156237900257 -0.590347051620483 -0.0238015633076429 -0.121798291802406 -0.888483464717865 0.811055362224579 1.5096515417099 0.901129066944122 -2.45083355903625
zeker 0.292914092540741 0.764100849628448 -0.942100644111633 1.00211465358734 -1.25986683368683 1.23351585865021 -0.318648278713226 -1.01671051979065 -0.206561177968979 -1.12824809551239 -0.324592173099518 0.560065865516663 1.35466146469116 1.20180475711823 -1.78337144851685
welke 1.85275232791901 0.0472187176346779 -0.874344289302826 1.62637960910797 -0.104177236557007 0.352953433990479 -0.394542098045349 0.972726702690125 1.04627001285553 0.155959814786911 -1.79414784908295 -1.0669584274292 0.102850995957851 0.0165951121598482 -1.19623446464539
is 0.330652236938477 0.939680457115173 0.34430918097496 0.287400931119919 -0.322917848825455 -1.69405806064606 -1.49503898620605 2.28185153007507 0.952887356281281 -0.445049315690994 -0.610096752643585 -0.961106240749359 0.672177672386169 0.0345139242708683 0.73171478509903
toen 2.23772478103638 -0.374394923448563 -0.925183892250061 1.24369883537292 0.420504629611969 1.17083859443665 0.0723297744989395 -0.277643173933029 1.11835265159607 0.622066080570221 -1.73389410972595 0.159646138548851 0.229605227708817 -0.624681532382965 -0.84092777967453
welkom 1.33187210559845 -1.00271260738373 -1.8757735490799 1.26720488071442 1.29014849662781 1.08463835716248 -0.353377610445023 -0.331730842590332 1.06557548046112 0.860836863517761 -0.953336119651794 -0.169704601168633 -0.856316447257996 -0.563947737216949 0.393763154745102
vanaf 1.36849975585938 0.629530072212219 1.04306769371033 1.03440225124359 -1.34060895442963 -0.88555383682251 -0.679370403289795 0.858715534210205 0.681542932987213 -1.19597089290619 -0.936495721340179 -1.143195271492 1.3210483789444 0.173024863004684 -0.968851387500763
laatste 2.22446632385254 -0.404991120100021 -0.839930236339569 1.3227596282959 0.174776956439018 0.753334581851959 0.0334334783256054 0.444351047277451 0.500782072544098 0.415173083543777 -1.77119326591492 0.0900111943483353 0.531349420547485 -0.0528094805777073 -1.66806244850159
mensen 1.29272758960724 -0.190697580575943 -1.52574324607849 1.6617968082428 -0.225154116749763 1.07165694236755 -0.381531029939651 0.615859985351562 0.309909373521805 -0.165852293372154 -1.23809206485748 -0.661472380161285 0.363986641168594 0.712925374507904 -1.93502426147461
lichte 1.17875516414642 0.681894063949585 -0.22508017718792 1.42292630672455 -0.293585270643234 -0.0389171466231346 -0.932666540145874 1.39273655414581 1.48949348926544 -0.435348302125931 -1.63131856918335 -1.61222589015961 0.367519646883011 0.054662398993969 -0.60517555475235
faciliteiten 1.07667851448059 0.567313075065613 -1.01792454719543 1.07177257537842 -0.541505932807922 -0.137797400355339 -1.26708221435547 2.35487675666809 1.23449409008026 0.0155565049499273 -1.38980329036713 -0.530356884002686 0.173286855220795 -0.265087932348251 -0.183149963617325
hebben 0.411589592695236 0.0828635022044182 -1.25135564804077 0.340673506259918 -0.955064833164215 2.16477823257446 0.272610545158386 -0.934651434421539 1.97394895553589 0.10212630033493 -0.343796789646149 0.0294612757861614 0.246967405080795 -1.51886117458344 -0.448970794677734
aan 2.85017323493958 0.386086404323578 0.670629620552063 0.720683872699738 -1.31614971160889 -0.259442210197449 -0.182100087404251 0.252820461988449 -1.21535813808441 -0.692620277404785 -0.764910161495209 -0.482975840568542 0.896980941295624 0.122954912483692 -0.516540825366974
beschrijving 0.941238164901733 0.849650740623474 -0.265922427177429 1.22472894191742 -0.241323634982109 -0.427160352468491 -1.14194118976593 1.77978241443634 1.6361323595047 -0.35542020201683 -1.66725218296051 -1.14470994472504 0.430161744356155 0.0538729429244995 -0.1668671220541
wat 0.660172581672668 -0.353333622217178 -1.41723084449768 0.419102072715759 0.246601223945618 -0.499926149845123 -0.554130613803864 2.0335545539856 -0.18098857998848 1.13727068901062 -0.8065584897995 0.780222952365875 0.800318241119385 0.0768148973584175 -2.06643629074097
uiterst 1.02737295627594 0.124802857637405 -1.0568927526474 1.57074642181396 -0.144466489553452 0.416197866201401 -1.18804788589478 1.06989109516144 1.77695560455322 -0.419248223304749 -1.08665728569031 -1.665647149086 -0.363410323858261 -0.267004519701004 0.32022425532341
dicht 0.771253347396851 0.822306632995605 0.783807456493378 1.01146018505096 -1.07678782939911 -0.696346282958984 -0.891623377799988 0.917565822601318 1.65261971950531 -1.13963484764099 -0.885988771915436 -1.85509479045868 0.498973906040192 -0.276621550321579 0.478036403656006
2 0.623471438884735 1.08691811561584 0.891533672809601 0.635360300540924 -1.32578408718109 -0.342806249856949 0.0578480400145054 0.936306834220886 0.717241823673248 -0.757756531238556 -1.40425181388855 -0.45088255405426 1.51544201374054 0.272330313920975 -1.95999050140381
n 1.5080235004425 0.487576484680176 -0.558765947818756 1.34063184261322 -1.13086915016174 0.341417461633682 -0.637701451778412 0.979268014431 1.48521208763123 -0.464249432086945 -1.6218968629837 -0.867160439491272 0.77590012550354 -0.0430027544498444 -1.09990537166595
niet 1.88308680057526 -0.0648516193032265 0.444267630577087 0.831564426422119 0.997258365154266 -0.418880105018616 0.616719782352448 -0.754487812519073 0.607686042785645 0.81175708770752 -1.76278126239777 0.630448639392853 1.26532173156738 0.352474868297577 -1.47748124599457
hoe 2.18087887763977 -0.551165044307709 -1.03567266464233 1.24633073806763 0.17242631316185 0.252237021923065 -0.241466239094734 1.14208388328552 -0.0864133462309837 0.625334560871124 -1.62256228923798 -0.11311099678278 0.206660270690918 0.164927765727043 -1.65652930736542
lag 1.80528879165649 -0.229422211647034 -1.08183002471924 1.54209661483765 0.301135033369064 0.264043509960175 -0.776826798915863 1.33157444000244 1.1014142036438 0.305837959051132 -1.75932991504669 -0.920079410076141 -0.179961040616035 -0.172366514801979 -0.540733456611633
rust 1.54790902137756 0.60399317741394 -0.416668593883514 1.46594619750977 -0.7626673579216 0.949058055877686 0.0314724706113338 -0.305702120065689 0.466132014989853 -0.534001648426056 -1.33432936668396 -0.601731359958649 1.2017902135849 0.602326571941376 -1.97172319889069
vertrek 1.93449819087982 -0.403927087783813 -1.42797291278839 1.60557496547699 0.1408371925354 1.08666086196899 -0.318352401256561 0.543879091739655 1.22999846935272 0.342665761709213 -1.54635751247406 -0.550864636898041 -0.212837800383568 -0.340640187263489 -0.627246797084808
mooi -0.424860745668411 0.844310939311981 -0.184143900871277 0.307871997356415 -0.386348396539688 -1.07926428318024 -1.74852108955383 1.84102177619934 1.66596496105194 -0.628117322921753 -0.456805229187012 -1.12580633163452 0.170672088861465 -0.0141696678474545 1.24167847633362
gedaan 1.67145192623138 -0.123736076056957 -1.45671057701111 1.62352406978607 -0.155254647135735 0.40812286734581 -0.904334366321564 1.46161675453186 1.02503216266632 0.248119071125984 -1.44231057167053 -0.85510516166687 -0.112344346940517 -0.17506942152977 -0.566834211349487
volledig 2.0536744594574 0.432122588157654 -0.646616876125336 1.59074223041534 -0.856571674346924 0.341008245944977 -0.578957736492157 0.901101529598236 0.579137682914734 -0.361087322235107 -1.46751701831818 -0.838441371917725 0.83103883266449 0.30160191655159 -1.24337220191956
fantastisch 0.0109120672568679 0.677725791931152 -0.513300538063049 0.981658816337585 -1.17946171760559 0.255391269922256 -0.963539659976959 0.81717586517334 2.15240907669067 -0.749707341194153 -0.654729247093201 -2.02579212188721 -0.168649569153786 -0.635011911392212 0.319036036729813
kamer 0.0164231285452843 0.448052793741226 -0.317185133695602 0.886925220489502 0.79307234287262 -0.355610847473145 -0.968129098415375 1.96409463882446 1.05021941661835 -0.216613173484802 -0.898495733737946 -2.11926794052124 -0.922252058982849 -0.263668686151505 0.996407985687256
moesten 1.78946053981781 -0.0232335850596428 -1.23984265327454 1.54412686824799 -0.342798501253128 0.88494861125946 -0.403614312410355 0.763791501522064 0.797356128692627 0.104895256459713 -1.65963649749756 -0.408965915441513 0.444394767284393 0.109415277838707 -1.56554865837097
aangename 1.09074425697327 -0.0810999646782875 -1.26744616031647 1.60435485839844 -0.0440948642790318 0.526124715805054 -1.02999675273895 1.26893961429596 1.29258799552917 -0.297530889511108 -1.16819608211517 -1.78092527389526 -0.563715219497681 0.0862359330058098 -0.229290843009949
veel -0.261222660541534 0.85868901014328 0.0961419865489006 0.522888958454132 -0.4118712246418 -0.803944170475006 -0.0509916059672832 1.75584053993225 1.01091337203979 0.158660739660263 -1.52436006069183 -2.0840539932251 -0.28001481294632 0.707316219806671 -1.31051194667816
loft 0.1161288022995 0.463911324739456 -1.37163436412811 1.09922325611115 -0.86609810590744 0.779146373271942 -0.784424602985382 1.28784883022308 1.78914248943329 -0.262892723083496 -0.741166591644287 -1.83283615112305 -0.536940813064575 -0.721598029136658 0.250578701496124
apartement 0.509544134140015 0.444246411323547 -0.513794422149658 0.933015763759613 -0.296185106039047 -0.59753280878067 -1.43634438514709 2.17254209518433 1.55521547794342 -0.338587999343872 -0.965656876564026 -1.41581511497498 -0.286904036998749 -0.33523228764534 0.718091309070587
bij 1.8944993019104 -0.900994837284088 -1.55549097061157 1.33016276359558 0.352274209260941 1.14648044109344 -0.509547173976898 0.0115255089476705 1.65098416805267 0.412140101194382 -1.08244872093201 0.460265934467316 -0.117042563855648 -0.634169936180115 0.129961267113686
ward 1.12123084068298 0.474853783845901 -0.818924605846405 1.52335405349731 -0.765336096286774 0.177106454968452 -1.15845715999603 1.3464263677597 1.53348422050476 -0.548836052417755 -1.30891454219818 -1.50582420825958 0.12636861205101 -0.0225398745387793 -0.322614639997482
deed 1.84299278259277 -0.229683011770248 -1.06841766834259 1.60089349746704 0.208900332450867 0.576487481594086 -0.17703303694725 0.73159384727478 1.15172135829926 0.437540858983994 -1.86470222473145 -0.687279164791107 0.0848204046487808 0.0126565778627992 -1.19539713859558
minuten 1.53928601741791 0.59562474489212 1.70667159557343 0.669240415096283 -1.25388324260712 -0.824947476387024 -0.0508425757288933 0.125496745109558 -0.0939872413873672 -1.18645060062408 -0.763681054115295 -0.792084574699402 1.48010230064392 0.185658797621727 -1.33859765529633
engels 1.75721633434296 0.0217505972832441 -0.890478193759918 1.64112424850464 0.0703825503587723 0.410760879516602 -0.46752142906189 0.734346091747284 1.21446239948273 0.16279299557209 -1.89442503452301 -0.696461379528046 0.494172304868698 0.128356844186783 -1.28761541843414
dank 1.03729331493378 -0.294507443904877 -1.71263957023621 1.30088210105896 -0.362079709768295 1.61751616001129 0.181243523955345 -0.443516820669174 0.565119206905365 0.161450237035751 -1.0220342874527 -0.0285469759255648 0.450669676065445 0.362568974494934 -2.12355494499207
leuk -0.737074613571167 0.668316960334778 -1.06997728347778 0.443147957324982 -1.24960780143738 0.44306269288063 -1.27376329898834 1.10813188552856 1.88968622684479 -0.879392027854919 -0.0681359022855759 -1.69068872928619 -0.3944111764431 -0.163450792431831 0.819144666194916
telefoon 2.18928837776184 -0.259442359209061 -0.645218670368195 1.38393032550812 0.129340410232544 0.0407386459410191 -0.182815760374069 1.12022793292999 0.174658045172691 0.519008159637451 -1.74196875095367 -0.332206964492798 0.482018560171127 0.244732066988945 -1.66267561912537
gewoon 1.21934604644775 0.657073676586151 -0.171310856938362 1.44869613647461 -0.794221520423889 -0.330270677804947 -1.1058851480484 1.33356082439423 1.50219833850861 -0.703890085220337 -1.35737800598145 -1.39326441287994 0.723777115345001 0.0520914644002914 -0.387118428945541
in 0.198908299207687 0.939935088157654 0.202464565634727 0.678466856479645 -1.45057451725006 0.229005515575409 -0.352019101381302 -0.799639046192169 1.70180451869965 -1.55708193778992 -0.01129549741745 -2.16026425361633 0.523132503032684 -0.421552777290344 -0.465631455183029
gast 2.0559253692627 -0.135502234101295 -1.09163570404053 1.69493997097015 -0.381603270769119 0.755311667919159 -0.384803295135498 0.54572206735611 0.549492478370667 -0.0333874113857746 -1.51215839385986 -0.640166819095612 0.581566333770752 0.262615650892258 -1.45658445358276
brussels 1.50630700588226 0.303561955690384 -1.15729904174805 1.75509142875671 -0.510607421398163 1.03660988807678 -0.635795712471008 0.450819164514542 1.35155189037323 -0.368405938148499 -1.39939856529236 -1.32703363895416 0.207827299833298 -0.0365091226994991 -0.741737008094788
geweldige -0.0405521467328072 0.358573198318481 -1.59498393535614 1.17455613613129 -0.120360530912876 0.673021793365479 -1.21169126033783 0.693444550037384 2.29613852500916 -0.308871537446976 -0.916186451911926 -1.46849858760834 -0.350495129823685 -0.0761395841836929 0.193738967180252
netjes -0.405657649040222 0.63062709569931 -0.452013909816742 0.398125290870667 0.765064358711243 -1.04958617687225 -1.63282263278961 2.02121186256409 1.81433773040771 0.0457627102732658 -0.816805958747864 -0.582952558994293 0.13329941034317 -0.249057501554489 1.12064719200134
gelijk 1.50134611129761 0.0234114583581686 -1.1015899181366 1.67609941959381 0.108221493661404 0.302556484937668 -0.887584388256073 1.07629024982452 1.54041814804077 0.00661334954202175 -1.66034483909607 -1.1287899017334 0.0928020849823952 -0.0698240250349045 -0.505779683589935
prachtig 0.112476609647274 1.19869446754456 0.0943217873573303 0.744736611843109 -0.508234918117523 -0.609624803066254 -1.65099406242371 1.47796285152435 1.66578960418701 -0.801628649234772 -0.921643137931824 -1.31776177883148 0.225883617997169 -0.20061981678009 1.16283941268921
brussel 0.830238878726959 0.272730588912964 -0.475475788116455 0.59683758020401 -2.56726026535034 1.5371972322464 -0.013486317358911 -1.10841751098633 0.540663242340088 -1.1122682094574 0.388165444135666 -0.843907117843628 0.680693805217743 -0.364403307437897 -0.694993138313293
gezorgd 1.55376279354095 -0.476307213306427 -1.68703103065491 1.49063122272491 0.328587561845779 0.622221887111664 -0.596192300319672 1.23374462127686 1.24992144107819 0.62145984172821 -1.48166179656982 -0.462955802679062 -0.487284243106842 -0.362022250890732 -0.437635362148285
een -0.828606903553009 1.03539180755615 -0.760648250579834 1.16891396045685 -1.09469747543335 0.808110773563385 -0.187410950660706 0.135721310973167 1.31179702281952 -0.823501169681549 -0.342803925275803 -2.41252994537354 -0.394277781248093 0.501705765724182 -0.804697155952454
grote 0.798416495323181 0.990441799163818 1.92756772041321 0.402334094047546 -1.214808344841 -1.33430790901184 -0.467615485191345 1.04565834999084 -0.22695504128933 -1.28431630134583 -0.649231016635895 -1.11711287498474 1.05750250816345 0.0882200598716736 -0.662910521030426
prettig 0.243027940392494 -0.133243560791016 -1.67223060131073 1.17049932479858 0.610356211662292 0.484860420227051 -0.698751986026764 0.923900425434113 2.46234560012817 0.700304210186005 -1.18678903579712 -0.491825014352798 -0.533476769924164 -0.292023688554764 0.483199715614319
schoon -0.494841456413269 0.880827069282532 -0.730818212032318 0.47566282749176 0.0587344355881214 -0.854485988616943 -1.75033497810364 1.83037924766541 1.87911903858185 -0.174159958958626 -0.680592715740204 -0.525948345661163 0.127977892756462 -0.176976636052132 1.31241035461426
bent 1.53189289569855 0.428002536296844 0.464002668857574 1.08158016204834 -1.2186496257782 -0.560242772102356 -0.1980831772089 0.604091048240662 0.2330482006073 -0.686999440193176 -1.2361341714859 -0.53066223859787 1.49457502365112 0.50673246383667 -2.01380729675293
goeie 1.36842250823975 0.301667749881744 -0.521693110466003 1.5354905128479 -0.227560684084892 -0.0179556086659431 -0.950951397418976 1.38693451881409 1.40636646747589 -0.302511215209961 -1.50360822677612 -1.74076402187347 -0.032648116350174 -0.0508225820958614 -0.402982205152512
leuke -0.448394358158112 1.09769701957703 0.613860964775085 0.67243105173111 -1.35117363929749 -0.196460783481598 -0.187265485525131 -0.129834458231926 0.744646966457367 -1.10876607894897 -0.419410705566406 -2.83077669143677 -0.151259422302246 0.627872407436371 -0.677242338657379
geen 1.27097964286804 -0.211462840437889 -0.111692488193512 0.658736944198608 0.620298326015472 -0.662819027900696 0.453244298696518 1.13084626197815 0.0168594438582659 1.13311898708344 -1.6446281671524 0.994186043739319 0.784760773181915 0.480321884155273 -2.1820023059845
herhaling 1.41575086116791 0.265667796134949 -0.829267144203186 1.57127034664154 -1.00345635414124 0.770220994949341 -0.0299886129796505 0.0819849073886871 0.59897369146347 -0.366657793521881 -1.41603744029999 -0.61385852098465 0.785409212112427 0.646422028541565 -2.06174468994141
cafe 0.648440420627594 1.59889590740204 1.33079135417938 0.703815937042236 -1.16427850723267 -0.825655579566956 -0.416174352169037 0.665583848953247 0.606293737888336 -1.10190367698669 -1.07860767841339 -1.45308971405029 1.1770122051239 0.449033141136169 -0.81215912103653
deze 0.464099198579788 0.925891160964966 -1.10979890823364 1.56210434436798 -0.913967609405518 1.07982993125916 -0.712377309799194 -0.604374468326569 0.649068355560303 -0.917610347270966 -0.995095610618591 -0.964153647422791 0.583940505981445 1.11655497550964 -1.61573708057404
markt 1.20766091346741 0.753664493560791 1.98633742332458 0.417101711034775 -0.955963253974915 -1.25105261802673 -0.440178066492081 0.876691579818726 -0.0295042209327221 -1.30413997173309 -0.538201868534088 -1.23746466636658 1.20840191841125 0.250790774822235 -0.605746150016785
was 0.275343418121338 -0.0188861452043056 -1.37761211395264 0.654040515422821 1.4112206697464 -0.380661129951477 -0.935908198356628 1.67480075359344 1.98260903358459 0.919991552829742 -1.26421308517456 0.188210904598236 -0.0173428226262331 -0.330941796302795 0.510208249092102
als 0.991892695426941 0.48505824804306 -0.351208865642548 0.746005594730377 -1.22013545036316 0.73751437664032 -0.161119848489761 -0.582403242588043 -0.285971194505692 -0.851989150047302 -0.572918117046356 0.567211806774139 1.94559299945831 0.870806634426117 -2.16839098930359
goede 0.451060086488724 0.0911610499024391 -0.0559423454105854 0.807004570960999 -0.32837650179863 -0.35901352763176 -0.833195209503174 1.68614792823792 0.693582952022552 -0.436469167470932 -0.403982996940613 -2.67896723747253 -1.30959939956665 -0.191526249051094 0.772305846214294
mooie -0.0538082718849182 0.722711145877838 0.217142835259438 0.640619516372681 -0.933077037334442 -0.0163913387805223 -0.972316443920135 1.19186067581177 0.595975875854492 -1.29615807533264 -0.0147466212511063 -2.84218788146973 -0.675161838531494 -0.0194954443722963 0.459050685167313
sfeervol 0.285973310470581 0.661048233509064 -0.908739626407623 0.796612799167633 -1.11934614181519 -0.289796471595764 -1.4709860086441 2.17705368995667 1.68379497528076 -0.347808033227921 -0.933320105075836 -0.858754456043243 0.105842567980289 -0.304282903671265 0.334789603948593
tussen 1.26002836227417 0.445341169834137 -0.335520952939987 1.47560155391693 -0.306510150432587 0.150272995233536 -0.0744288414716721 0.489633351564407 0.785414695739746 -0.112651214003563 -1.75409889221191 -1.31226122379303 0.6463982462883 0.651833176612854 -2.07148170471191
slapen 1.58405816555023 0.131631657481194 -0.913891673088074 1.40227711200714 -0.227348178625107 0.617976605892181 -0.172092378139496 1.09121322631836 0.860045790672302 0.30295392870903 -1.90302169322968 -0.426042556762695 0.62989866733551 0.180950090289116 -1.71870040893555
ons 1.9686176776886 -0.958272933959961 -1.70204401016235 1.16983938217163 0.442640870809555 1.46486735343933 0.0989492014050484 -0.483015418052673 0.706218659877777 0.920805394649506 -0.822526514530182 0.432677894830704 -0.764406442642212 -0.722699165344238 0.197281748056412
de 1.66635525226593 0.377539545297623 1.71682441234589 0.396691411733627 0.0366716757416725 -0.819256186485291 0.00889699067920446 1.62872934341431 0.456642419099808 0.251167595386505 -1.91203057765961 -1.26466476917267 -0.316816538572311 0.0980659946799278 -0.116931572556496
prive 1.14841556549072 0.270532816648483 -0.217002928256989 1.26848757266998 -0.303897559642792 -0.342927992343903 -0.407779067754745 1.7694628238678 0.534340918064117 -0.0937878042459488 -1.77771019935608 -1.43455994129181 0.287754774093628 0.557155668735504 -1.59336364269257
groep 1.25761723518372 0.865319609642029 0.514727473258972 1.16042959690094 -1.42392659187317 -0.408179461956024 -0.55871045589447 0.999888479709625 0.276468068361282 -1.01863956451416 -1.04188060760498 -0.911720931529999 1.35775935649872 0.630742967128754 -1.50990355014801
sleutel 2.37479209899902 -0.309712320566177 -0.31446498632431 1.15119969844818 0.072228342294693 0.321116954088211 0.464493691921234 0.300843060016632 0.113672718405724 0.612151384353638 -1.8462301492691 0.101773999631405 0.559689342975616 0.0904191508889198 -1.81595611572266
echt 0.253062933683395 0.986299574375153 -0.931518137454987 1.40510034561157 -1.01704335212708 0.704909205436707 -0.532391011714935 -0.0631286650896072 1.30949091911316 -0.680960714817047 -1.15845787525177 0.0540910474956036 1.59369492530823 0.736769318580627 -1.64204776287079
don 2.26088213920593 -0.53345388174057 -1.37229943275452 1.49923086166382 -0.767481505870819 1.39259815216064 -0.460562586784363 0.484176874160767 0.636226236820221 -0.209018990397453 -1.05491936206818 -0.630901873111725 -0.514537215232849 -0.501879811286926 -0.148459658026695
hartelijke 1.06084740161896 -0.130331337451935 -0.958686232566833 1.43037748336792 0.570571005344391 0.627790033817291 -1.00817883014679 0.782761216163635 1.62442433834076 -0.163884297013283 -1.13826131820679 -1.78032994270325 -0.860906064510345 -0.420754760503769 0.703368067741394
alles 0.322194874286652 -0.262432336807251 -0.800646305084229 0.20625002682209 0.357874304056168 -1.43597161769867 -1.12769567966461 2.99186968803406 0.0783464387059212 0.950756013393402 -0.522278130054474 0.359772831201553 0.359684139490128 -0.0942244455218315 -0.529280781745911
modern 0.0911086350679398 0.609954237937927 -0.751058876514435 0.891847968101501 -0.318330854177475 -0.28816345334053 -1.59129321575165 1.68275678157806 1.78009748458862 -0.500429451465607 -0.737467706203461 -1.34045684337616 -0.323345720767975 -0.367123067378998 1.30871105194092
graag 1.2015278339386 -0.264983236789703 -1.18775510787964 0.988153278827667 -0.293294370174408 1.39478838443756 0.255999535322189 -0.799488186836243 -0.187757432460785 -0.0343471989035606 -0.991721153259277 0.6573206782341 0.955938220024109 0.710677206516266 -2.34346723556519
bruno 1.33431971073151 0.215572327375412 -1.30862820148468 1.69696497917175 -0.952379167079926 0.789712309837341 -0.769367098808289 0.940662026405334 0.984576106071472 -0.624015986919403 -0.997033655643463 -1.33730101585388 0.250507980585098 0.269418925046921 -1.13881552219391
ik 0.362039595842361 6.0264632338658e-05 -1.36615860462189 0.792741715908051 -0.117269724607468 1.13378798961639 0.31114798784256 -0.900342047214508 0.102910593152046 0.0819370299577713 -1.23979389667511 0.611411690711975 1.01005136966705 1.27172458171844 -2.36679911613464
weer 1.24266147613525 -0.188813880085945 -1.01760625839233 0.90497887134552 -0.706832587718964 1.45846557617188 0.30051189661026 -0.892329692840576 0.10310310125351 -0.146177589893341 -0.985014319419861 0.707432091236115 1.20143556594849 0.368966192007065 -2.22935962677002
het 1.99842727184296 0.355211019515991 1.10164093971252 0.767308592796326 -1.09003531932831 -1.16989684104919 -0.629299581050873 0.176351487636566 1.54133224487305 -0.0790349543094635 -1.10633742809296 0.0185864996165037 0.962978661060333 -0.650169789791107 1.06651568412781
sanitair 0.196744859218597 0.692357242107391 -0.883313357830048 0.987216889858246 -0.0975659266114235 -0.427654504776001 -1.39382588863373 2.01820707321167 1.90192091464996 -0.181641444563866 -1.2274512052536 -1.12420690059662 0.150919958949089 -0.0700554102659225 0.265177696943283
en 0.373013824224472 0.259477257728577 -0.452002584934235 1.02164089679718 0.220177456736565 -0.749306976795197 -1.05564260482788 2.10426115989685 0.96507465839386 -0.396278947591782 -0.900715529918671 -2.15004801750183 -0.871504604816437 0.201413452625275 0.265991687774658
bezienswaardigheden 1.51671743392944 0.565768122673035 0.174728974699974 1.1310932636261 -1.56355440616608 -0.196346446871758 -0.749067485332489 1.57146430015564 0.710309207439423 -0.745809435844421 -1.05765974521637 -1.77474772930145 -0.0402493923902512 -0.26024916768074 -0.396512359380722
bereikbaar 1.07519519329071 0.271517038345337 0.870268940925598 1.55034947395325 -0.572376251220703 -1.08524012565613 -0.878028988838196 1.06903398036957 1.43740427494049 -0.761936008930206 -1.2790048122406 -1.65946412086487 0.314060658216476 -0.0311686769127846 0.232800230383873
of 1.80162763595581 0.20234103500843 0.687811970710754 0.795053362846375 -0.373033165931702 -0.366139024496078 0.473081350326538 0.212314888834953 -0.774936854839325 0.00535767804831266 -1.28255307674408 -0.0175503622740507 1.26872289180756 0.690131187438965 -2.39461064338684
gebruik 2.60247492790222 -0.549060165882111 0.26741224527359 0.635138928890228 -1.49293828010559 0.35158360004425 0.372661650180817 0.628983318805695 -1.30365467071533 -0.20135273039341 -0.898795127868652 -0.130996435880661 0.175598159432411 -0.200113385915756 -1.38846826553345
dankzij 1.16523408889771 0.151678755879402 -1.44820320606232 1.47783398628235 -0.912210524082184 1.58026432991028 -0.575459778308868 -0.0322178080677986 1.65905380249023 -0.535904943943024 -1.01072323322296 -1.00661587715149 0.138722091913223 -0.386762410402298 -0.658075392246246
zodat 1.90388441085815 -0.641960680484772 -1.38612186908722 1.26141285896301 0.171823874115944 1.46423196792603 0.186520040035248 -0.341382294893265 0.674074590206146 0.582887649536133 -1.39957976341248 0.301373928785324 0.230685666203499 -0.228949815034866 -1.4752516746521
eigen 0.907697796821594 0.0329664200544357 -0.77081835269928 0.881325602531433 -0.629532098770142 -0.735376477241516 -1.105828166008 2.91667699813843 0.347614198923111 0.174017280340195 -1.01316213607788 -0.837547540664673 -0.304752826690674 -0.0537044480443001 -0.402854323387146
erg 0.277307212352753 0.326473087072372 -1.12967705726624 1.15490198135376 0.532589912414551 0.318807005882263 -1.04897308349609 0.185064375400543 2.67955589294434 0.0617370046675205 -1.00316989421844 -0.883200287818909 -0.300114661455154 -0.40917494893074 1.20786869525909
voldeed 2.20044040679932 0.385682165622711 -0.122097745537758 1.17495822906494 -0.500591635704041 -0.425785154104233 -1.20829772949219 1.33506405353546 0.940147161483765 -0.325887143611908 -1.1868314743042 -0.958958983421326 0.0215114858001471 -0.330593317747116 1.22947466373444
dit 0.104407988488674 1.04458796977997 -1.34264731407166 0.957972645759583 -1.16569137573242 1.05839395523071 -0.585156142711639 -0.791301250457764 1.69090950489044 -0.166488379240036 -0.976983547210693 0.789535701274872 1.51665329933167 0.39037624001503 -0.901406049728394
trendy 1.1148179769516 0.847434461116791 -0.18917478621006 1.19306266307831 -1.18129134178162 -0.369171380996704 -0.948250710964203 1.60814225673676 1.23618686199188 -0.60270220041275 -1.42598748207092 -1.24259305000305 0.710739493370056 0.11224789172411 -0.759062528610229
4 0.83621484041214 0.858891904354095 -0.57957911491394 1.12195110321045 -1.94693195819855 0.658946990966797 -0.6220543384552 1.3050309419632 1.03931558132172 -0.725052237510681 -1.2162002325058 -0.639218986034393 0.755653202533722 -0.110622972249985 -1.25565850734711
aanrader -0.380911290645599 0.996726751327515 -1.26889252662659 1.04417514801025 -1.45914304256439 1.4476500749588 -0.73569792509079 -0.942192196846008 0.150593489408493 -1.32307398319244 0.404842436313629 -0.780771195888519 0.960026323795319 0.958807766437531 -1.0581214427948
al -0.0814402252435684 -0.555903613567352 -1.09163248538971 0.811296284198761 -0.280438035726547 0.797413647174835 1.49557423591614 -0.484984904527664 0.448221802711487 0.862505614757538 -0.860939145088196 -0.791236042976379 -0.29308894276619 0.482773721218109 -2.64895248413086
op 1.66570127010345 0.949242651462555 2.04601502418518 0.79896342754364 -0.0659550204873085 -1.08847188949585 -0.0959891080856323 0.130845859646797 0.932292282581329 -0.340777784585953 -1.40485680103302 -0.831814110279083 1.21332669258118 -0.278008848428726 -0.290026783943176
parkeren 2.13291811943054 0.162878662347794 1.46952891349792 1.03428316116333 -0.921559453010559 -0.390728622674942 0.496455281972885 -0.358238309621811 -0.136626869440079 -0.442490518093109 -1.28416538238525 -1.02654349803925 0.867554366588593 0.150874704122543 -1.45786869525909
ruime -0.334571719169617 0.675523221492767 -0.514902830123901 0.735758364200592 -0.664665937423706 -0.039845809340477 -1.22668313980103 2.13535070419312 1.5041024684906 -0.382963061332703 -0.656488955020905 -1.8795428276062 -0.532352924346924 -0.378499686717987 0.564019978046417
ver 1.62777674198151 0.628544449806213 1.12240493297577 1.00833749771118 -1.36714065074921 -0.941220164299011 -0.290880918502808 0.605543732643127 0.605692386627197 -0.918622255325317 -1.03830277919769 -1.45052051544189 1.07164633274078 0.193089097738266 -0.945490121841431
b -0.0128890331834555 0.925269424915314 -0.714027762413025 0.765872955322266 -1.40274858474731 0.10218520462513 -1.69316005706787 1.69511961936951 0.434175997972488 -0.761045396327972 -0.41244900226593 -1.71432375907898 -1.06557035446167 0.0187327247112989 0.562527060508728
zitten 1.50361609458923 0.723350465297699 0.0510484240949154 1.43025326728821 -0.919964253902435 -0.0460320673882961 -0.0712363198399544 0.365583181381226 0.897579908370972 -0.393598586320877 -1.43278157711029 -1.1867516040802 1.18228650093079 0.288162022829056 -1.81048119068146
die 1.08278560638428 -0.774238348007202 -1.7050541639328 1.11481821537018 -0.224811166524887 0.990133225917816 0.216228947043419 0.461214423179626 -1.22763442993164 0.197180151939392 -0.616352677345276 -0.102533183991909 -0.527265250682831 0.659834861755371 -2.26670718193054
te 2.38203740119934 -0.502197265625 0.353990107774734 1.24711692333221 -0.69317889213562 0.484549522399902 0.722302913665771 -0.506315231323242 -1.31022870540619 -0.0714005008339882 -0.42336431145668 -1.05921733379364 0.27543306350708 0.553453624248505 -1.57942223548889
info 1.68618702888489 -0.251742303371429 -1.39354002475739 1.64653027057648 -0.131703078746796 0.679333329200745 -0.444991588592529 0.983746647834778 1.10742342472076 0.23502217233181 -1.5164600610733 -1.12101972103119 -0.408300668001175 -0.184001639485359 -0.870197534561157
ochtend 1.60404348373413 0.306526809930801 -1.01781105995178 1.68229639530182 -0.449233204126358 0.823865056037903 -0.379869788885117 0.514262735843658 0.965349197387695 -0.216943502426147 -1.67140555381775 -0.579104542732239 0.710759222507477 0.340604990720749 -1.56479370594025
aangenaam 0.750122010707855 0.410875052213669 -1.89176428318024 1.24863076210022 -0.43813145160675 0.921363711357117 -1.08079373836517 1.25570023059845 1.98081815242767 0.0303195230662823 -0.793243944644928 -0.755990028381348 0.0675816014409065 -0.452910393476486 -0.0993376821279526
muziek 1.60242903232574 0.747825562953949 0.272163391113281 1.29056632518768 -0.883323788642883 -0.0394393727183342 -0.355892986059189 0.631742477416992 0.167111501097679 -0.748833835124969 -1.40659940242767 -0.813999593257904 1.30306792259216 0.719270169734955 -1.83865094184875
